digraph Tree {
node [shape=box] ;
0 [label="X[87] <= 0.5\ngini = 0.95\nsamples = 3000\nvalue = [150, 150, 150, 150, 150, 150, 150, 150, 150, 150\n150, 150, 150, 150, 150, 150, 150, 150, 150, 150]"] ;
1 [label="X[94] <= 0.5\ngini = 0.947\nsamples = 1818\nvalue = [92, 92, 81, 105, 96, 93, 0, 95, 93, 98, 99, 100\n101, 105, 95, 98, 90, 101, 96, 88]"] ;
0 -> 1 [labeldistance=2.5, labelangle=45, headlabel="True"] ;
2 [label="X[96] <= 0.5\ngini = 0.944\nsamples = 1306\nvalue = [74, 71, 66, 69, 79, 69, 0, 63, 76, 73, 80, 79\n75, 0, 76, 76, 68, 74, 73, 65]"] ;
1 -> 2 ;
3 [label="X[92] <= 0.5\ngini = 0.941\nsamples = 1009\nvalue = [64, 55, 55, 56, 64, 49, 0, 53, 65, 63, 59, 66\n63, 0, 62, 0, 53, 63, 64, 55]"] ;
2 -> 3 ;
4 [label="X[81] <= 0.5\ngini = 0.937\nsamples = 794\nvalue = [58, 47, 45, 49, 50, 43, 0, 42, 53, 53, 53, 0\n56, 0, 51, 0, 38, 52, 54, 50]"] ;
3 -> 4 ;
5 [label="X[99] <= 0.5\ngini = 0.933\nsamples = 636\nvalue = [0, 41, 42, 39, 46, 38, 0, 36, 46, 44, 45, 0\n45, 0, 46, 0, 32, 45, 49, 42]"] ;
4 -> 5 ;
6 [label="X[82] <= 0.5\ngini = 0.928\nsamples = 502\nvalue = [0, 38, 33, 31, 41, 33, 0, 30, 40, 39, 37, 0\n39, 0, 41, 0, 28, 36, 0, 36]"] ;
5 -> 6 ;
7 [label="X[95] <= 0.5\ngini = 0.922\nsamples = 415\nvalue = [0, 0, 30, 25, 37, 30, 0, 28, 34, 34, 32, 0, 37\n0, 36, 0, 24, 33, 0, 35]"] ;
6 -> 7 ;
8 [label="X[93] <= 0.5\ngini = 0.915\nsamples = 330\nvalue = [0, 0, 28, 19, 31, 27, 0, 25, 28, 32, 24, 0, 34\n0, 0, 0, 23, 27, 0, 32]"] ;
7 -> 8 ;
9 [label="X[85] <= 0.5\ngini = 0.906\nsamples = 253\nvalue = [0, 0, 26, 13, 28, 25, 0, 22, 23, 27, 18, 0, 0\n0, 0, 0, 21, 22, 0, 28]"] ;
8 -> 9 ;
10 [label="X[111] <= 0.5\ngini = 0.897\nsamples = 198\nvalue = [0, 0, 22, 12, 0, 22, 0, 19, 20, 22, 17, 0, 0\n0, 0, 0, 21, 19, 0, 24]"] ;
9 -> 10 ;
11 [label="X[151] <= -1.967\ngini = 0.587\nsamples = 34\nvalue = [0, 0, 5, 0, 0, 2, 0, 1, 1, 21, 2, 0, 0, 0\n0, 0, 0, 1, 0, 1]"] ;
10 -> 11 ;
12 [label="X[175] <= 141.5\ngini = 0.667\nsamples = 6\nvalue = [0, 0, 3, 0, 0, 1, 0, 0, 1, 0, 0, 0, 0, 0\n0, 0, 0, 0, 0, 1]"] ;
11 -> 12 ;
13 [label="gini = 0.0\nsamples = 3\nvalue = [0, 0, 3, 0, 0, 0, 0, 0, 0, 0, 0, 0, 0, 0\n0, 0, 0, 0, 0, 0]"] ;
12 -> 13 ;
14 [label="X[126] <= 1.5\ngini = 0.667\nsamples = 3\nvalue = [0, 0, 0, 0, 0, 1, 0, 0, 1, 0, 0, 0, 0, 0\n0, 0, 0, 0, 0, 1]"] ;
12 -> 14 ;
15 [label="gini = 0.0\nsamples = 1\nvalue = [0, 0, 0, 0, 0, 0, 0, 0, 0, 0, 0, 0, 0, 0\n0, 0, 0, 0, 0, 1]"] ;
14 -> 15 ;
16 [label="X[31] <= 0.5\ngini = 0.5\nsamples = 2\nvalue = [0, 0, 0, 0, 0, 1, 0, 0, 1, 0, 0, 0, 0, 0\n0, 0, 0, 0, 0, 0]"] ;
14 -> 16 ;
17 [label="gini = 0.0\nsamples = 1\nvalue = [0, 0, 0, 0, 0, 1, 0, 0, 0, 0, 0, 0, 0, 0\n0, 0, 0, 0, 0, 0]"] ;
16 -> 17 ;
18 [label="gini = 0.0\nsamples = 1\nvalue = [0, 0, 0, 0, 0, 0, 0, 0, 1, 0, 0, 0, 0, 0\n0, 0, 0, 0, 0, 0]"] ;
16 -> 18 ;
19 [label="X[30] <= 0.5\ngini = 0.423\nsamples = 28\nvalue = [0, 0, 2, 0, 0, 1, 0, 1, 0, 21, 2, 0, 0, 0\n0, 0, 0, 1, 0, 0]"] ;
11 -> 19 ;
20 [label="X[158] <= -2.688\ngini = 0.285\nsamples = 25\nvalue = [0, 0, 1, 0, 0, 0, 0, 0, 0, 21, 2, 0, 0, 0\n0, 0, 0, 1, 0, 0]"] ;
19 -> 20 ;
21 [label="X[78] <= 0.5\ngini = 0.5\nsamples = 2\nvalue = [0, 0, 1, 0, 0, 0, 0, 0, 0, 0, 0, 0, 0, 0\n0, 0, 0, 1, 0, 0]"] ;
20 -> 21 ;
22 [label="gini = 0.0\nsamples = 1\nvalue = [0, 0, 1, 0, 0, 0, 0, 0, 0, 0, 0, 0, 0, 0\n0, 0, 0, 0, 0, 0]"] ;
21 -> 22 ;
23 [label="gini = 0.0\nsamples = 1\nvalue = [0, 0, 0, 0, 0, 0, 0, 0, 0, 0, 0, 0, 0, 0\n0, 0, 0, 1, 0, 0]"] ;
21 -> 23 ;
24 [label="X[90] <= 0.5\ngini = 0.159\nsamples = 23\nvalue = [0, 0, 0, 0, 0, 0, 0, 0, 0, 21, 2, 0, 0, 0\n0, 0, 0, 0, 0, 0]"] ;
20 -> 24 ;
25 [label="gini = 0.0\nsamples = 1\nvalue = [0, 0, 0, 0, 0, 0, 0, 0, 0, 0, 1, 0, 0, 0\n0, 0, 0, 0, 0, 0]"] ;
24 -> 25 ;
26 [label="X[149] <= 2.708\ngini = 0.087\nsamples = 22\nvalue = [0, 0, 0, 0, 0, 0, 0, 0, 0, 21, 1, 0, 0, 0\n0, 0, 0, 0, 0, 0]"] ;
24 -> 26 ;
27 [label="gini = 0.0\nsamples = 20\nvalue = [0, 0, 0, 0, 0, 0, 0, 0, 0, 20, 0, 0, 0, 0\n0, 0, 0, 0, 0, 0]"] ;
26 -> 27 ;
28 [label="X[192] <= 0.5\ngini = 0.5\nsamples = 2\nvalue = [0, 0, 0, 0, 0, 0, 0, 0, 0, 1, 1, 0, 0, 0\n0, 0, 0, 0, 0, 0]"] ;
26 -> 28 ;
29 [label="gini = 0.0\nsamples = 1\nvalue = [0, 0, 0, 0, 0, 0, 0, 0, 0, 0, 1, 0, 0, 0\n0, 0, 0, 0, 0, 0]"] ;
28 -> 29 ;
30 [label="gini = 0.0\nsamples = 1\nvalue = [0, 0, 0, 0, 0, 0, 0, 0, 0, 1, 0, 0, 0, 0\n0, 0, 0, 0, 0, 0]"] ;
28 -> 30 ;
31 [label="X[131] <= 2.5\ngini = 0.667\nsamples = 3\nvalue = [0, 0, 1, 0, 0, 1, 0, 1, 0, 0, 0, 0, 0, 0\n0, 0, 0, 0, 0, 0]"] ;
19 -> 31 ;
32 [label="gini = 0.0\nsamples = 1\nvalue = [0, 0, 0, 0, 0, 1, 0, 0, 0, 0, 0, 0, 0, 0\n0, 0, 0, 0, 0, 0]"] ;
31 -> 32 ;
33 [label="X[110] <= 1.0\ngini = 0.5\nsamples = 2\nvalue = [0, 0, 1, 0, 0, 0, 0, 1, 0, 0, 0, 0, 0, 0\n0, 0, 0, 0, 0, 0]"] ;
31 -> 33 ;
34 [label="gini = 0.0\nsamples = 1\nvalue = [0, 0, 1, 0, 0, 0, 0, 0, 0, 0, 0, 0, 0, 0\n0, 0, 0, 0, 0, 0]"] ;
33 -> 34 ;
35 [label="gini = 0.0\nsamples = 1\nvalue = [0, 0, 0, 0, 0, 0, 0, 1, 0, 0, 0, 0, 0, 0\n0, 0, 0, 0, 0, 0]"] ;
33 -> 35 ;
36 [label="X[86] <= 0.5\ngini = 0.887\nsamples = 164\nvalue = [0, 0, 17, 12, 0, 20, 0, 18, 19, 1, 15, 0, 0\n0, 0, 0, 21, 18, 0, 23]"] ;
10 -> 36 ;
37 [label="X[89] <= 0.5\ngini = 0.872\nsamples = 130\nvalue = [0, 0, 15, 12, 0, 0, 0, 17, 17, 0, 15, 0, 0\n0, 0, 0, 19, 14, 0, 21]"] ;
36 -> 37 ;
38 [label="X[97] <= 0.5\ngini = 0.853\nsamples = 101\nvalue = [0, 0, 12, 12, 0, 0, 0, 16, 0, 0, 14, 0, 0, 0\n0, 0, 18, 12, 0, 17]"] ;
37 -> 38 ;
39 [label="X[109] <= 0.5\ngini = 0.832\nsamples = 68\nvalue = [0, 0, 10, 11, 0, 0, 0, 12, 0, 0, 13, 0, 0, 0\n0, 0, 0, 10, 0, 12]"] ;
38 -> 39 ;
40 [label="X[28] <= 0.5\ngini = 0.6\nsamples = 20\nvalue = [0, 0, 3, 1, 0, 0, 0, 12, 0, 0, 1, 0, 0, 0\n0, 0, 0, 1, 0, 2]"] ;
39 -> 40 ;
41 [label="gini = 0.0\nsamples = 12\nvalue = [0, 0, 0, 0, 0, 0, 0, 12, 0, 0, 0, 0, 0, 0\n0, 0, 0, 0, 0, 0]"] ;
40 -> 41 ;
42 [label="X[37] <= 0.5\ngini = 0.75\nsamples = 8\nvalue = [0, 0, 3, 1, 0, 0, 0, 0, 0, 0, 1, 0, 0, 0\n0, 0, 0, 1, 0, 2]"] ;
40 -> 42 ;
43 [label="X[215] <= 3.121\ngini = 0.667\nsamples = 6\nvalue = [0, 0, 3, 1, 0, 0, 0, 0, 0, 0, 1, 0, 0, 0\n0, 0, 0, 1, 0, 0]"] ;
42 -> 43 ;
44 [label="gini = 0.375\nsamples = 4\nvalue = [0, 0, 3, 0, 0, 0, 0, 0, 0, 0, 1, 0, 0, 0\n0, 0, 0, 0, 0, 0]"] ;
43 -> 44 ;
45 [label="gini = 0.5\nsamples = 2\nvalue = [0, 0, 0, 1, 0, 0, 0, 0, 0, 0, 0, 0, 0, 0\n0, 0, 0, 1, 0, 0]"] ;
43 -> 45 ;
46 [label="gini = 0.0\nsamples = 2\nvalue = [0, 0, 0, 0, 0, 0, 0, 0, 0, 0, 0, 0, 0, 0\n0, 0, 0, 0, 0, 2]"] ;
42 -> 46 ;
47 [label="X[98] <= 0.5\ngini = 0.794\nsamples = 48\nvalue = [0, 0, 7, 10, 0, 0, 0, 0, 0, 0, 12, 0, 0, 0\n0, 0, 0, 9, 0, 10]"] ;
39 -> 47 ;
48 [label="X[100] <= 0.5\ngini = 0.725\nsamples = 34\nvalue = [0, 0, 4, 9, 0, 0, 0, 0, 0, 0, 11, 0, 0, 0\n0, 0, 0, 0, 0, 10]"] ;
47 -> 48 ;
49 [label="X[84] <= 0.5\ngini = 0.585\nsamples = 20\nvalue = [0, 0, 2, 9, 0, 0, 0, 0, 0, 0, 9, 0, 0, 0\n0, 0, 0, 0, 0, 0]"] ;
48 -> 49 ;
50 [label="gini = 0.346\nsamples = 9\nvalue = [0, 0, 2, 0, 0, 0, 0, 0, 0, 0, 7, 0, 0, 0\n0, 0, 0, 0, 0, 0]"] ;
49 -> 50 ;
51 [label="gini = 0.298\nsamples = 11\nvalue = [0, 0, 0, 9, 0, 0, 0, 0, 0, 0, 2, 0, 0, 0\n0, 0, 0, 0, 0, 0]"] ;
49 -> 51 ;
52 [label="X[40] <= 0.5\ngini = 0.449\nsamples = 14\nvalue = [0, 0, 2, 0, 0, 0, 0, 0, 0, 0, 2, 0, 0, 0\n0, 0, 0, 0, 0, 10]"] ;
48 -> 52 ;
53 [label="gini = 0.165\nsamples = 11\nvalue = [0, 0, 1, 0, 0, 0, 0, 0, 0, 0, 0, 0, 0, 0\n0, 0, 0, 0, 0, 10]"] ;
52 -> 53 ;
54 [label="gini = 0.444\nsamples = 3\nvalue = [0, 0, 1, 0, 0, 0, 0, 0, 0, 0, 2, 0, 0, 0\n0, 0, 0, 0, 0, 0]"] ;
52 -> 54 ;
55 [label="X[153] <= 2.272\ngini = 0.531\nsamples = 14\nvalue = [0, 0, 3, 1, 0, 0, 0, 0, 0, 0, 1, 0, 0, 0\n0, 0, 0, 9, 0, 0]"] ;
47 -> 55 ;
56 [label="X[204] <= -1.866\ngini = 0.314\nsamples = 11\nvalue = [0, 0, 0, 1, 0, 0, 0, 0, 0, 0, 1, 0, 0, 0\n0, 0, 0, 9, 0, 0]"] ;
55 -> 56 ;
57 [label="gini = 0.5\nsamples = 2\nvalue = [0, 0, 0, 1, 0, 0, 0, 0, 0, 0, 1, 0, 0, 0\n0, 0, 0, 0, 0, 0]"] ;
56 -> 57 ;
58 [label="gini = 0.0\nsamples = 9\nvalue = [0, 0, 0, 0, 0, 0, 0, 0, 0, 0, 0, 0, 0, 0\n0, 0, 0, 9, 0, 0]"] ;
56 -> 58 ;
59 [label="gini = 0.0\nsamples = 3\nvalue = [0, 0, 3, 0, 0, 0, 0, 0, 0, 0, 0, 0, 0, 0\n0, 0, 0, 0, 0, 0]"] ;
55 -> 59 ;
60 [label="X[37] <= 0.5\ngini = 0.656\nsamples = 33\nvalue = [0, 0, 2, 1, 0, 0, 0, 4, 0, 0, 1, 0, 0, 0\n0, 0, 18, 2, 0, 5]"] ;
38 -> 60 ;
61 [label="X[202] <= -3.841\ngini = 0.31\nsamples = 22\nvalue = [0, 0, 0, 1, 0, 0, 0, 0, 0, 0, 0, 0, 0, 0\n0, 0, 18, 0, 0, 3]"] ;
60 -> 61 ;
62 [label="X[209] <= -7.109\ngini = 0.375\nsamples = 4\nvalue = [0, 0, 0, 0, 0, 0, 0, 0, 0, 0, 0, 0, 0, 0\n0, 0, 1, 0, 0, 3]"] ;
61 -> 62 ;
63 [label="gini = 0.0\nsamples = 1\nvalue = [0, 0, 0, 0, 0, 0, 0, 0, 0, 0, 0, 0, 0, 0\n0, 0, 1, 0, 0, 0]"] ;
62 -> 63 ;
64 [label="gini = 0.0\nsamples = 3\nvalue = [0, 0, 0, 0, 0, 0, 0, 0, 0, 0, 0, 0, 0, 0\n0, 0, 0, 0, 0, 3]"] ;
62 -> 64 ;
65 [label="X[158] <= 2.639\ngini = 0.105\nsamples = 18\nvalue = [0, 0, 0, 1, 0, 0, 0, 0, 0, 0, 0, 0, 0, 0\n0, 0, 17, 0, 0, 0]"] ;
61 -> 65 ;
66 [label="gini = 0.0\nsamples = 17\nvalue = [0, 0, 0, 0, 0, 0, 0, 0, 0, 0, 0, 0, 0, 0\n0, 0, 17, 0, 0, 0]"] ;
65 -> 66 ;
67 [label="gini = 0.0\nsamples = 1\nvalue = [0, 0, 0, 1, 0, 0, 0, 0, 0, 0, 0, 0, 0, 0\n0, 0, 0, 0, 0, 0]"] ;
65 -> 67 ;
68 [label="X[109] <= 0.5\ngini = 0.76\nsamples = 11\nvalue = [0, 0, 2, 0, 0, 0, 0, 4, 0, 0, 1, 0, 0, 0\n0, 0, 0, 2, 0, 2]"] ;
60 -> 68 ;
69 [label="X[14] <= 0.5\ngini = 0.32\nsamples = 5\nvalue = [0, 0, 0, 0, 0, 0, 0, 4, 0, 0, 0, 0, 0, 0\n0, 0, 0, 0, 0, 1]"] ;
68 -> 69 ;
70 [label="gini = 0.0\nsamples = 4\nvalue = [0, 0, 0, 0, 0, 0, 0, 4, 0, 0, 0, 0, 0, 0\n0, 0, 0, 0, 0, 0]"] ;
69 -> 70 ;
71 [label="gini = 0.0\nsamples = 1\nvalue = [0, 0, 0, 0, 0, 0, 0, 0, 0, 0, 0, 0, 0, 0\n0, 0, 0, 0, 0, 1]"] ;
69 -> 71 ;
72 [label="X[167] <= 148.0\ngini = 0.722\nsamples = 6\nvalue = [0, 0, 2, 0, 0, 0, 0, 0, 0, 0, 1, 0, 0, 0\n0, 0, 0, 2, 0, 1]"] ;
68 -> 72 ;
73 [label="X[119] <= 2.081\ngini = 0.625\nsamples = 4\nvalue = [0, 0, 2, 0, 0, 0, 0, 0, 0, 0, 1, 0, 0, 0\n0, 0, 0, 0, 0, 1]"] ;
72 -> 73 ;
74 [label="gini = 0.0\nsamples = 2\nvalue = [0, 0, 2, 0, 0, 0, 0, 0, 0, 0, 0, 0, 0, 0\n0, 0, 0, 0, 0, 0]"] ;
73 -> 74 ;
75 [label="gini = 0.5\nsamples = 2\nvalue = [0, 0, 0, 0, 0, 0, 0, 0, 0, 0, 1, 0, 0, 0\n0, 0, 0, 0, 0, 1]"] ;
73 -> 75 ;
76 [label="gini = 0.0\nsamples = 2\nvalue = [0, 0, 0, 0, 0, 0, 0, 0, 0, 0, 0, 0, 0, 0\n0, 0, 0, 2, 0, 0]"] ;
72 -> 76 ;
77 [label="X[29] <= 0.5\ngini = 0.618\nsamples = 29\nvalue = [0, 0, 3, 0, 0, 0, 0, 1, 17, 0, 1, 0, 0, 0\n0, 0, 1, 2, 0, 4]"] ;
37 -> 77 ;
78 [label="X[160] <= -2.098\ngini = 0.265\nsamples = 20\nvalue = [0, 0, 0, 0, 0, 0, 0, 0, 17, 0, 0, 0, 0, 0\n0, 0, 1, 2, 0, 0]"] ;
77 -> 78 ;
79 [label="gini = 0.0\nsamples = 2\nvalue = [0, 0, 0, 0, 0, 0, 0, 0, 0, 0, 0, 0, 0, 0\n0, 0, 0, 2, 0, 0]"] ;
78 -> 79 ;
80 [label="X[110] <= 1.5\ngini = 0.105\nsamples = 18\nvalue = [0, 0, 0, 0, 0, 0, 0, 0, 17, 0, 0, 0, 0, 0\n0, 0, 1, 0, 0, 0]"] ;
78 -> 80 ;
81 [label="gini = 0.0\nsamples = 17\nvalue = [0, 0, 0, 0, 0, 0, 0, 0, 17, 0, 0, 0, 0, 0\n0, 0, 0, 0, 0, 0]"] ;
80 -> 81 ;
82 [label="gini = 0.0\nsamples = 1\nvalue = [0, 0, 0, 0, 0, 0, 0, 0, 0, 0, 0, 0, 0, 0\n0, 0, 1, 0, 0, 0]"] ;
80 -> 82 ;
83 [label="X[148] <= 1.576\ngini = 0.667\nsamples = 9\nvalue = [0, 0, 3, 0, 0, 0, 0, 1, 0, 0, 1, 0, 0, 0\n0, 0, 0, 0, 0, 4]"] ;
77 -> 83 ;
84 [label="gini = 0.0\nsamples = 3\nvalue = [0, 0, 3, 0, 0, 0, 0, 0, 0, 0, 0, 0, 0, 0\n0, 0, 0, 0, 0, 0]"] ;
83 -> 84 ;
85 [label="X[205] <= 1.111\ngini = 0.5\nsamples = 6\nvalue = [0, 0, 0, 0, 0, 0, 0, 1, 0, 0, 1, 0, 0, 0\n0, 0, 0, 0, 0, 4]"] ;
83 -> 85 ;
86 [label="X[103] <= 1.0\ngini = 0.5\nsamples = 2\nvalue = [0, 0, 0, 0, 0, 0, 0, 1, 0, 0, 1, 0, 0, 0\n0, 0, 0, 0, 0, 0]"] ;
85 -> 86 ;
87 [label="gini = 0.0\nsamples = 1\nvalue = [0, 0, 0, 0, 0, 0, 0, 1, 0, 0, 0, 0, 0, 0\n0, 0, 0, 0, 0, 0]"] ;
86 -> 87 ;
88 [label="gini = 0.0\nsamples = 1\nvalue = [0, 0, 0, 0, 0, 0, 0, 0, 0, 0, 1, 0, 0, 0\n0, 0, 0, 0, 0, 0]"] ;
86 -> 88 ;
89 [label="gini = 0.0\nsamples = 4\nvalue = [0, 0, 0, 0, 0, 0, 0, 0, 0, 0, 0, 0, 0, 0\n0, 0, 0, 0, 0, 4]"] ;
85 -> 89 ;
90 [label="X[187] <= 0.5\ngini = 0.625\nsamples = 34\nvalue = [0, 0, 2, 0, 0, 20, 0, 1, 2, 1, 0, 0, 0, 0\n0, 0, 2, 4, 0, 2]"] ;
36 -> 90 ;
91 [label="X[220] <= 5.17\ngini = 0.169\nsamples = 22\nvalue = [0, 0, 0, 0, 0, 20, 0, 0, 1, 1, 0, 0, 0, 0\n0, 0, 0, 0, 0, 0]"] ;
90 -> 91 ;
92 [label="X[148] <= -3.136\ngini = 0.091\nsamples = 21\nvalue = [0, 0, 0, 0, 0, 20, 0, 0, 1, 0, 0, 0, 0, 0\n0, 0, 0, 0, 0, 0]"] ;
91 -> 92 ;
93 [label="gini = 0.0\nsamples = 1\nvalue = [0, 0, 0, 0, 0, 0, 0, 0, 1, 0, 0, 0, 0, 0\n0, 0, 0, 0, 0, 0]"] ;
92 -> 93 ;
94 [label="gini = 0.0\nsamples = 20\nvalue = [0, 0, 0, 0, 0, 20, 0, 0, 0, 0, 0, 0, 0, 0\n0, 0, 0, 0, 0, 0]"] ;
92 -> 94 ;
95 [label="gini = 0.0\nsamples = 1\nvalue = [0, 0, 0, 0, 0, 0, 0, 0, 0, 1, 0, 0, 0, 0\n0, 0, 0, 0, 0, 0]"] ;
91 -> 95 ;
96 [label="X[119] <= 1.0\ngini = 0.792\nsamples = 12\nvalue = [0, 0, 2, 0, 0, 0, 0, 1, 1, 0, 0, 0, 0, 0\n0, 0, 2, 4, 0, 2]"] ;
90 -> 96 ;
97 [label="gini = 0.0\nsamples = 4\nvalue = [0, 0, 0, 0, 0, 0, 0, 0, 0, 0, 0, 0, 0, 0\n0, 0, 0, 4, 0, 0]"] ;
96 -> 97 ;
98 [label="X[210] <= 2.575\ngini = 0.781\nsamples = 8\nvalue = [0, 0, 2, 0, 0, 0, 0, 1, 1, 0, 0, 0, 0, 0\n0, 0, 2, 0, 0, 2]"] ;
96 -> 98 ;
99 [label="X[100] <= 0.5\ngini = 0.722\nsamples = 6\nvalue = [0, 0, 0, 0, 0, 0, 0, 1, 1, 0, 0, 0, 0, 0\n0, 0, 2, 0, 0, 2]"] ;
98 -> 99 ;
100 [label="X[205] <= 2.148\ngini = 0.625\nsamples = 4\nvalue = [0, 0, 0, 0, 0, 0, 0, 1, 1, 0, 0, 0, 0, 0\n0, 0, 2, 0, 0, 0]"] ;
99 -> 100 ;
101 [label="gini = 0.0\nsamples = 2\nvalue = [0, 0, 0, 0, 0, 0, 0, 0, 0, 0, 0, 0, 0, 0\n0, 0, 2, 0, 0, 0]"] ;
100 -> 101 ;
102 [label="X[219] <= 4.73\ngini = 0.5\nsamples = 2\nvalue = [0, 0, 0, 0, 0, 0, 0, 1, 1, 0, 0, 0, 0, 0\n0, 0, 0, 0, 0, 0]"] ;
100 -> 102 ;
103 [label="gini = 0.0\nsamples = 1\nvalue = [0, 0, 0, 0, 0, 0, 0, 1, 0, 0, 0, 0, 0, 0\n0, 0, 0, 0, 0, 0]"] ;
102 -> 103 ;
104 [label="gini = 0.0\nsamples = 1\nvalue = [0, 0, 0, 0, 0, 0, 0, 0, 1, 0, 0, 0, 0, 0\n0, 0, 0, 0, 0, 0]"] ;
102 -> 104 ;
105 [label="gini = 0.0\nsamples = 2\nvalue = [0, 0, 0, 0, 0, 0, 0, 0, 0, 0, 0, 0, 0, 0\n0, 0, 0, 0, 0, 2]"] ;
99 -> 105 ;
106 [label="gini = 0.0\nsamples = 2\nvalue = [0, 0, 2, 0, 0, 0, 0, 0, 0, 0, 0, 0, 0, 0\n0, 0, 0, 0, 0, 0]"] ;
98 -> 106 ;
107 [label="X[25] <= 0.5\ngini = 0.709\nsamples = 55\nvalue = [0, 0, 4, 1, 28, 3, 0, 3, 3, 5, 1, 0, 0, 0\n0, 0, 0, 3, 0, 4]"] ;
9 -> 107 ;
108 [label="X[206] <= 2.583\ngini = 0.313\nsamples = 34\nvalue = [0, 0, 0, 0, 28, 0, 0, 1, 2, 2, 0, 0, 0, 0\n0, 0, 0, 0, 0, 1]"] ;
107 -> 108 ;
109 [label="X[14] <= 0.5\ngini = 0.272\nsamples = 33\nvalue = [0, 0, 0, 0, 28, 0, 0, 0, 2, 2, 0, 0, 0, 0\n0, 0, 0, 0, 0, 1]"] ;
108 -> 109 ;
110 [label="X[146] <= -1.092\ngini = 0.229\nsamples = 32\nvalue = [0, 0, 0, 0, 28, 0, 0, 0, 2, 1, 0, 0, 0, 0\n0, 0, 0, 0, 0, 1]"] ;
109 -> 110 ;
111 [label="X[111] <= 2.081\ngini = 0.611\nsamples = 6\nvalue = [0, 0, 0, 0, 3, 0, 0, 0, 2, 1, 0, 0, 0, 0\n0, 0, 0, 0, 0, 0]"] ;
110 -> 111 ;
112 [label="X[160] <= 0.603\ngini = 0.444\nsamples = 3\nvalue = [0, 0, 0, 0, 0, 0, 0, 0, 2, 1, 0, 0, 0, 0\n0, 0, 0, 0, 0, 0]"] ;
111 -> 112 ;
113 [label="gini = 0.0\nsamples = 2\nvalue = [0, 0, 0, 0, 0, 0, 0, 0, 2, 0, 0, 0, 0, 0\n0, 0, 0, 0, 0, 0]"] ;
112 -> 113 ;
114 [label="gini = 0.0\nsamples = 1\nvalue = [0, 0, 0, 0, 0, 0, 0, 0, 0, 1, 0, 0, 0, 0\n0, 0, 0, 0, 0, 0]"] ;
112 -> 114 ;
115 [label="gini = 0.0\nsamples = 3\nvalue = [0, 0, 0, 0, 3, 0, 0, 0, 0, 0, 0, 0, 0, 0\n0, 0, 0, 0, 0, 0]"] ;
111 -> 115 ;
116 [label="X[112] <= 3.384\ngini = 0.074\nsamples = 26\nvalue = [0, 0, 0, 0, 25, 0, 0, 0, 0, 0, 0, 0, 0, 0\n0, 0, 0, 0, 0, 1]"] ;
110 -> 116 ;
117 [label="gini = 0.0\nsamples = 23\nvalue = [0, 0, 0, 0, 23, 0, 0, 0, 0, 0, 0, 0, 0, 0\n0, 0, 0, 0, 0, 0]"] ;
116 -> 117 ;
118 [label="X[0] <= 11.5\ngini = 0.444\nsamples = 3\nvalue = [0, 0, 0, 0, 2, 0, 0, 0, 0, 0, 0, 0, 0, 0\n0, 0, 0, 0, 0, 1]"] ;
116 -> 118 ;
119 [label="gini = 0.0\nsamples = 1\nvalue = [0, 0, 0, 0, 0, 0, 0, 0, 0, 0, 0, 0, 0, 0\n0, 0, 0, 0, 0, 1]"] ;
118 -> 119 ;
120 [label="gini = 0.0\nsamples = 2\nvalue = [0, 0, 0, 0, 2, 0, 0, 0, 0, 0, 0, 0, 0, 0\n0, 0, 0, 0, 0, 0]"] ;
118 -> 120 ;
121 [label="gini = 0.0\nsamples = 1\nvalue = [0, 0, 0, 0, 0, 0, 0, 0, 0, 1, 0, 0, 0, 0\n0, 0, 0, 0, 0, 0]"] ;
109 -> 121 ;
122 [label="gini = 0.0\nsamples = 1\nvalue = [0, 0, 0, 0, 0, 0, 0, 1, 0, 0, 0, 0, 0, 0\n0, 0, 0, 0, 0, 0]"] ;
108 -> 122 ;
123 [label="X[83] <= 0.5\ngini = 0.866\nsamples = 21\nvalue = [0, 0, 4, 1, 0, 3, 0, 2, 1, 3, 1, 0, 0, 0\n0, 0, 0, 3, 0, 3]"] ;
107 -> 123 ;
124 [label="X[86] <= 0.5\ngini = 0.844\nsamples = 16\nvalue = [0, 0, 0, 1, 0, 3, 0, 1, 1, 3, 1, 0, 0, 0\n0, 0, 0, 3, 0, 3]"] ;
123 -> 124 ;
125 [label="X[100] <= 0.5\ngini = 0.817\nsamples = 13\nvalue = [0, 0, 0, 1, 0, 0, 0, 1, 1, 3, 1, 0, 0, 0\n0, 0, 0, 3, 0, 3]"] ;
124 -> 125 ;
126 [label="X[156] <= -1.877\ngini = 0.78\nsamples = 10\nvalue = [0, 0, 0, 1, 0, 0, 0, 1, 1, 3, 1, 0, 0, 0\n0, 0, 0, 3, 0, 0]"] ;
125 -> 126 ;
127 [label="gini = 0.0\nsamples = 3\nvalue = [0, 0, 0, 0, 0, 0, 0, 0, 0, 3, 0, 0, 0, 0\n0, 0, 0, 0, 0, 0]"] ;
126 -> 127 ;
128 [label="X[129] <= 2.5\ngini = 0.735\nsamples = 7\nvalue = [0, 0, 0, 1, 0, 0, 0, 1, 1, 0, 1, 0, 0, 0\n0, 0, 0, 3, 0, 0]"] ;
126 -> 128 ;
129 [label="X[91] <= 0.5\ngini = 0.75\nsamples = 4\nvalue = [0, 0, 0, 1, 0, 0, 0, 1, 1, 0, 1, 0, 0, 0\n0, 0, 0, 0, 0, 0]"] ;
128 -> 129 ;
130 [label="X[214] <= -4.845\ngini = 0.667\nsamples = 3\nvalue = [0, 0, 0, 1, 0, 0, 0, 1, 1, 0, 0, 0, 0, 0\n0, 0, 0, 0, 0, 0]"] ;
129 -> 130 ;
131 [label="gini = 0.0\nsamples = 1\nvalue = [0, 0, 0, 0, 0, 0, 0, 0, 1, 0, 0, 0, 0, 0\n0, 0, 0, 0, 0, 0]"] ;
130 -> 131 ;
132 [label="gini = 0.5\nsamples = 2\nvalue = [0, 0, 0, 1, 0, 0, 0, 1, 0, 0, 0, 0, 0, 0\n0, 0, 0, 0, 0, 0]"] ;
130 -> 132 ;
133 [label="gini = 0.0\nsamples = 1\nvalue = [0, 0, 0, 0, 0, 0, 0, 0, 0, 0, 1, 0, 0, 0\n0, 0, 0, 0, 0, 0]"] ;
129 -> 133 ;
134 [label="gini = 0.0\nsamples = 3\nvalue = [0, 0, 0, 0, 0, 0, 0, 0, 0, 0, 0, 0, 0, 0\n0, 0, 0, 3, 0, 0]"] ;
128 -> 134 ;
135 [label="gini = 0.0\nsamples = 3\nvalue = [0, 0, 0, 0, 0, 0, 0, 0, 0, 0, 0, 0, 0, 0\n0, 0, 0, 0, 0, 3]"] ;
125 -> 135 ;
136 [label="gini = 0.0\nsamples = 3\nvalue = [0, 0, 0, 0, 0, 3, 0, 0, 0, 0, 0, 0, 0, 0\n0, 0, 0, 0, 0, 0]"] ;
124 -> 136 ;
137 [label="X[115] <= 3.239\ngini = 0.32\nsamples = 5\nvalue = [0, 0, 4, 0, 0, 0, 0, 1, 0, 0, 0, 0, 0, 0\n0, 0, 0, 0, 0, 0]"] ;
123 -> 137 ;
138 [label="gini = 0.0\nsamples = 4\nvalue = [0, 0, 4, 0, 0, 0, 0, 0, 0, 0, 0, 0, 0, 0\n0, 0, 0, 0, 0, 0]"] ;
137 -> 138 ;
139 [label="gini = 0.0\nsamples = 1\nvalue = [0, 0, 0, 0, 0, 0, 0, 1, 0, 0, 0, 0, 0, 0\n0, 0, 0, 0, 0, 0]"] ;
137 -> 139 ;
140 [label="X[194] <= 0.5\ngini = 0.772\nsamples = 77\nvalue = [0, 0, 2, 6, 3, 2, 0, 3, 5, 5, 6, 0, 34, 0\n0, 0, 2, 5, 0, 4]"] ;
8 -> 140 ;
141 [label="X[220] <= 2.325\ngini = 0.338\nsamples = 42\nvalue = [0, 0, 0, 0, 0, 1, 0, 0, 2, 1, 1, 0, 34, 0\n0, 0, 1, 2, 0, 0]"] ;
140 -> 141 ;
142 [label="gini = 0.0\nsamples = 27\nvalue = [0, 0, 0, 0, 0, 0, 0, 0, 0, 0, 0, 0, 27, 0\n0, 0, 0, 0, 0, 0]"] ;
141 -> 142 ;
143 [label="X[161] <= 0.745\ngini = 0.729\nsamples = 15\nvalue = [0, 0, 0, 0, 0, 1, 0, 0, 2, 1, 1, 0, 7, 0\n0, 0, 1, 2, 0, 0]"] ;
141 -> 143 ;
144 [label="X[142] <= 1.017\ngini = 0.778\nsamples = 6\nvalue = [0, 0, 0, 0, 0, 0, 0, 0, 2, 1, 1, 0, 0, 0\n0, 0, 1, 1, 0, 0]"] ;
143 -> 144 ;
145 [label="X[174] <= 83.0\ngini = 0.75\nsamples = 4\nvalue = [0, 0, 0, 0, 0, 0, 0, 0, 0, 1, 1, 0, 0, 0\n0, 0, 1, 1, 0, 0]"] ;
144 -> 145 ;
146 [label="gini = 0.0\nsamples = 1\nvalue = [0, 0, 0, 0, 0, 0, 0, 0, 0, 1, 0, 0, 0, 0\n0, 0, 0, 0, 0, 0]"] ;
145 -> 146 ;
147 [label="X[208] <= -2.065\ngini = 0.667\nsamples = 3\nvalue = [0, 0, 0, 0, 0, 0, 0, 0, 0, 0, 1, 0, 0, 0\n0, 0, 1, 1, 0, 0]"] ;
145 -> 147 ;
148 [label="gini = 0.0\nsamples = 1\nvalue = [0, 0, 0, 0, 0, 0, 0, 0, 0, 0, 0, 0, 0, 0\n0, 0, 1, 0, 0, 0]"] ;
147 -> 148 ;
149 [label="X[201] <= 0.5\ngini = 0.5\nsamples = 2\nvalue = [0, 0, 0, 0, 0, 0, 0, 0, 0, 0, 1, 0, 0, 0\n0, 0, 0, 1, 0, 0]"] ;
147 -> 149 ;
150 [label="gini = 0.0\nsamples = 1\nvalue = [0, 0, 0, 0, 0, 0, 0, 0, 0, 0, 0, 0, 0, 0\n0, 0, 0, 1, 0, 0]"] ;
149 -> 150 ;
151 [label="gini = 0.0\nsamples = 1\nvalue = [0, 0, 0, 0, 0, 0, 0, 0, 0, 0, 1, 0, 0, 0\n0, 0, 0, 0, 0, 0]"] ;
149 -> 151 ;
152 [label="gini = 0.0\nsamples = 2\nvalue = [0, 0, 0, 0, 0, 0, 0, 0, 2, 0, 0, 0, 0, 0\n0, 0, 0, 0, 0, 0]"] ;
144 -> 152 ;
153 [label="X[150] <= 1.895\ngini = 0.37\nsamples = 9\nvalue = [0, 0, 0, 0, 0, 1, 0, 0, 0, 0, 0, 0, 7, 0\n0, 0, 0, 1, 0, 0]"] ;
143 -> 153 ;
154 [label="gini = 0.0\nsamples = 7\nvalue = [0, 0, 0, 0, 0, 0, 0, 0, 0, 0, 0, 0, 7, 0\n0, 0, 0, 0, 0, 0]"] ;
153 -> 154 ;
155 [label="X[185] <= 0.5\ngini = 0.5\nsamples = 2\nvalue = [0, 0, 0, 0, 0, 1, 0, 0, 0, 0, 0, 0, 0, 0\n0, 0, 0, 1, 0, 0]"] ;
153 -> 155 ;
156 [label="gini = 0.0\nsamples = 1\nvalue = [0, 0, 0, 0, 0, 1, 0, 0, 0, 0, 0, 0, 0, 0\n0, 0, 0, 0, 0, 0]"] ;
155 -> 156 ;
157 [label="gini = 0.0\nsamples = 1\nvalue = [0, 0, 0, 0, 0, 0, 0, 0, 0, 0, 0, 0, 0, 0\n0, 0, 0, 1, 0, 0]"] ;
155 -> 157 ;
158 [label="X[91] <= 0.5\ngini = 0.89\nsamples = 35\nvalue = [0, 0, 2, 6, 3, 1, 0, 3, 3, 4, 5, 0, 0, 0\n0, 0, 1, 3, 0, 4]"] ;
140 -> 158 ;
159 [label="X[84] <= 0.5\ngini = 0.875\nsamples = 28\nvalue = [0, 0, 2, 6, 3, 1, 0, 3, 3, 2, 0, 0, 0, 0\n0, 0, 1, 3, 0, 4]"] ;
158 -> 159 ;
160 [label="X[150] <= 2.301\ngini = 0.875\nsamples = 20\nvalue = [0, 0, 2, 0, 2, 1, 0, 3, 3, 2, 0, 0, 0, 0\n0, 0, 1, 3, 0, 3]"] ;
159 -> 160 ;
161 [label="X[88] <= 0.5\ngini = 0.858\nsamples = 17\nvalue = [0, 0, 2, 0, 2, 1, 0, 3, 3, 2, 0, 0, 0, 0\n0, 0, 1, 3, 0, 0]"] ;
160 -> 161 ;
162 [label="X[98] <= 0.5\ngini = 0.837\nsamples = 14\nvalue = [0, 0, 2, 0, 2, 1, 0, 0, 3, 2, 0, 0, 0, 0\n0, 0, 1, 3, 0, 0]"] ;
161 -> 162 ;
163 [label="X[90] <= 0.5\ngini = 0.81\nsamples = 11\nvalue = [0, 0, 2, 0, 2, 1, 0, 0, 3, 2, 0, 0, 0, 0\n0, 0, 1, 0, 0, 0]"] ;
162 -> 163 ;
164 [label="X[0] <= 54.5\ngini = 0.765\nsamples = 9\nvalue = [0, 0, 2, 0, 2, 1, 0, 0, 3, 0, 0, 0, 0, 0\n0, 0, 1, 0, 0, 0]"] ;
163 -> 164 ;
165 [label="X[189] <= 0.5\ngini = 0.72\nsamples = 5\nvalue = [0, 0, 2, 0, 1, 1, 0, 0, 0, 0, 0, 0, 0, 0\n0, 0, 1, 0, 0, 0]"] ;
164 -> 165 ;
166 [label="gini = 0.667\nsamples = 3\nvalue = [0, 0, 0, 0, 1, 1, 0, 0, 0, 0, 0, 0, 0, 0\n0, 0, 1, 0, 0, 0]"] ;
165 -> 166 ;
167 [label="gini = 0.0\nsamples = 2\nvalue = [0, 0, 2, 0, 0, 0, 0, 0, 0, 0, 0, 0, 0, 0\n0, 0, 0, 0, 0, 0]"] ;
165 -> 167 ;
168 [label="X[155] <= -2.098\ngini = 0.375\nsamples = 4\nvalue = [0, 0, 0, 0, 1, 0, 0, 0, 3, 0, 0, 0, 0, 0\n0, 0, 0, 0, 0, 0]"] ;
164 -> 168 ;
169 [label="gini = 0.0\nsamples = 1\nvalue = [0, 0, 0, 0, 1, 0, 0, 0, 0, 0, 0, 0, 0, 0\n0, 0, 0, 0, 0, 0]"] ;
168 -> 169 ;
170 [label="gini = 0.0\nsamples = 3\nvalue = [0, 0, 0, 0, 0, 0, 0, 0, 3, 0, 0, 0, 0, 0\n0, 0, 0, 0, 0, 0]"] ;
168 -> 170 ;
171 [label="gini = 0.0\nsamples = 2\nvalue = [0, 0, 0, 0, 0, 0, 0, 0, 0, 2, 0, 0, 0, 0\n0, 0, 0, 0, 0, 0]"] ;
163 -> 171 ;
172 [label="gini = 0.0\nsamples = 3\nvalue = [0, 0, 0, 0, 0, 0, 0, 0, 0, 0, 0, 0, 0, 0\n0, 0, 0, 3, 0, 0]"] ;
162 -> 172 ;
173 [label="gini = 0.0\nsamples = 3\nvalue = [0, 0, 0, 0, 0, 0, 0, 3, 0, 0, 0, 0, 0, 0\n0, 0, 0, 0, 0, 0]"] ;
161 -> 173 ;
174 [label="gini = 0.0\nsamples = 3\nvalue = [0, 0, 0, 0, 0, 0, 0, 0, 0, 0, 0, 0, 0, 0\n0, 0, 0, 0, 0, 3]"] ;
160 -> 174 ;
175 [label="X[209] <= 5.854\ngini = 0.406\nsamples = 8\nvalue = [0, 0, 0, 6, 1, 0, 0, 0, 0, 0, 0, 0, 0, 0\n0, 0, 0, 0, 0, 1]"] ;
159 -> 175 ;
176 [label="gini = 0.0\nsamples = 6\nvalue = [0, 0, 0, 6, 0, 0, 0, 0, 0, 0, 0, 0, 0, 0\n0, 0, 0, 0, 0, 0]"] ;
175 -> 176 ;
177 [label="X[24] <= 0.5\ngini = 0.5\nsamples = 2\nvalue = [0, 0, 0, 0, 1, 0, 0, 0, 0, 0, 0, 0, 0, 0\n0, 0, 0, 0, 0, 1]"] ;
175 -> 177 ;
178 [label="gini = 0.0\nsamples = 1\nvalue = [0, 0, 0, 0, 0, 0, 0, 0, 0, 0, 0, 0, 0, 0\n0, 0, 0, 0, 0, 1]"] ;
177 -> 178 ;
179 [label="gini = 0.0\nsamples = 1\nvalue = [0, 0, 0, 0, 1, 0, 0, 0, 0, 0, 0, 0, 0, 0\n0, 0, 0, 0, 0, 0]"] ;
177 -> 179 ;
180 [label="X[90] <= 0.5\ngini = 0.408\nsamples = 7\nvalue = [0, 0, 0, 0, 0, 0, 0, 0, 0, 2, 5, 0, 0, 0\n0, 0, 0, 0, 0, 0]"] ;
158 -> 180 ;
181 [label="gini = 0.0\nsamples = 5\nvalue = [0, 0, 0, 0, 0, 0, 0, 0, 0, 0, 5, 0, 0, 0\n0, 0, 0, 0, 0, 0]"] ;
180 -> 181 ;
182 [label="gini = 0.0\nsamples = 2\nvalue = [0, 0, 0, 0, 0, 0, 0, 0, 0, 2, 0, 0, 0, 0\n0, 0, 0, 0, 0, 0]"] ;
180 -> 182 ;
183 [label="X[196] <= 0.5\ngini = 0.786\nsamples = 85\nvalue = [0, 0, 2, 6, 6, 3, 0, 3, 6, 2, 8, 0, 3, 0\n36, 0, 1, 6, 0, 3]"] ;
7 -> 183 ;
184 [label="X[156] <= -1.941\ngini = 0.49\nsamples = 51\nvalue = [0, 0, 1, 2, 1, 2, 0, 2, 0, 0, 3, 0, 0, 0\n36, 0, 0, 2, 0, 2]"] ;
183 -> 184 ;
185 [label="X[155] <= -2.664\ngini = 0.625\nsamples = 4\nvalue = [0, 0, 0, 1, 0, 2, 0, 0, 0, 0, 1, 0, 0, 0\n0, 0, 0, 0, 0, 0]"] ;
184 -> 185 ;
186 [label="gini = 0.0\nsamples = 2\nvalue = [0, 0, 0, 0, 0, 2, 0, 0, 0, 0, 0, 0, 0, 0\n0, 0, 0, 0, 0, 0]"] ;
185 -> 186 ;
187 [label="X[203] <= -2.516\ngini = 0.5\nsamples = 2\nvalue = [0, 0, 0, 1, 0, 0, 0, 0, 0, 0, 1, 0, 0, 0\n0, 0, 0, 0, 0, 0]"] ;
185 -> 187 ;
188 [label="gini = 0.0\nsamples = 1\nvalue = [0, 0, 0, 1, 0, 0, 0, 0, 0, 0, 0, 0, 0, 0\n0, 0, 0, 0, 0, 0]"] ;
187 -> 188 ;
189 [label="gini = 0.0\nsamples = 1\nvalue = [0, 0, 0, 0, 0, 0, 0, 0, 0, 0, 1, 0, 0, 0\n0, 0, 0, 0, 0, 0]"] ;
187 -> 189 ;
190 [label="X[156] <= 2.137\ngini = 0.405\nsamples = 47\nvalue = [0, 0, 1, 1, 1, 0, 0, 2, 0, 0, 2, 0, 0, 0\n36, 0, 0, 2, 0, 2]"] ;
184 -> 190 ;
191 [label="X[144] <= 2.655\ngini = 0.323\nsamples = 44\nvalue = [0, 0, 1, 1, 0, 0, 0, 0, 0, 0, 2, 0, 0, 0\n36, 0, 0, 2, 0, 2]"] ;
190 -> 191 ;
192 [label="X[125] <= 2.5\ngini = 0.265\nsamples = 41\nvalue = [0, 0, 1, 1, 0, 0, 0, 0, 0, 0, 2, 0, 0, 0\n35, 0, 0, 2, 0, 0]"] ;
191 -> 192 ;
193 [label="gini = 0.0\nsamples = 26\nvalue = [0, 0, 0, 0, 0, 0, 0, 0, 0, 0, 0, 0, 0, 0\n26, 0, 0, 0, 0, 0]"] ;
192 -> 193 ;
194 [label="X[209] <= 0.0\ngini = 0.596\nsamples = 15\nvalue = [0, 0, 1, 1, 0, 0, 0, 0, 0, 0, 2, 0, 0, 0\n9, 0, 0, 2, 0, 0]"] ;
192 -> 194 ;
195 [label="X[142] <= -2.336\ngini = 0.298\nsamples = 11\nvalue = [0, 0, 0, 0, 0, 0, 0, 0, 0, 0, 2, 0, 0, 0\n9, 0, 0, 0, 0, 0]"] ;
194 -> 195 ;
196 [label="X[31] <= 0.5\ngini = 0.444\nsamples = 3\nvalue = [0, 0, 0, 0, 0, 0, 0, 0, 0, 0, 2, 0, 0, 0\n1, 0, 0, 0, 0, 0]"] ;
195 -> 196 ;
197 [label="gini = 0.0\nsamples = 2\nvalue = [0, 0, 0, 0, 0, 0, 0, 0, 0, 0, 2, 0, 0, 0\n0, 0, 0, 0, 0, 0]"] ;
196 -> 197 ;
198 [label="gini = 0.0\nsamples = 1\nvalue = [0, 0, 0, 0, 0, 0, 0, 0, 0, 0, 0, 0, 0, 0\n1, 0, 0, 0, 0, 0]"] ;
196 -> 198 ;
199 [label="gini = 0.0\nsamples = 8\nvalue = [0, 0, 0, 0, 0, 0, 0, 0, 0, 0, 0, 0, 0, 0\n8, 0, 0, 0, 0, 0]"] ;
195 -> 199 ;
200 [label="X[149] <= 1.099\ngini = 0.625\nsamples = 4\nvalue = [0, 0, 1, 1, 0, 0, 0, 0, 0, 0, 0, 0, 0, 0\n0, 0, 0, 2, 0, 0]"] ;
194 -> 200 ;
201 [label="gini = 0.0\nsamples = 2\nvalue = [0, 0, 0, 0, 0, 0, 0, 0, 0, 0, 0, 0, 0, 0\n0, 0, 0, 2, 0, 0]"] ;
200 -> 201 ;
202 [label="X[116] <= 1.0\ngini = 0.5\nsamples = 2\nvalue = [0, 0, 1, 1, 0, 0, 0, 0, 0, 0, 0, 0, 0, 0\n0, 0, 0, 0, 0, 0]"] ;
200 -> 202 ;
203 [label="gini = 0.0\nsamples = 1\nvalue = [0, 0, 0, 1, 0, 0, 0, 0, 0, 0, 0, 0, 0, 0\n0, 0, 0, 0, 0, 0]"] ;
202 -> 203 ;
204 [label="gini = 0.0\nsamples = 1\nvalue = [0, 0, 1, 0, 0, 0, 0, 0, 0, 0, 0, 0, 0, 0\n0, 0, 0, 0, 0, 0]"] ;
202 -> 204 ;
205 [label="X[76] <= 0.5\ngini = 0.444\nsamples = 3\nvalue = [0, 0, 0, 0, 0, 0, 0, 0, 0, 0, 0, 0, 0, 0\n1, 0, 0, 0, 0, 2]"] ;
191 -> 205 ;
206 [label="gini = 0.0\nsamples = 2\nvalue = [0, 0, 0, 0, 0, 0, 0, 0, 0, 0, 0, 0, 0, 0\n0, 0, 0, 0, 0, 2]"] ;
205 -> 206 ;
207 [label="gini = 0.0\nsamples = 1\nvalue = [0, 0, 0, 0, 0, 0, 0, 0, 0, 0, 0, 0, 0, 0\n1, 0, 0, 0, 0, 0]"] ;
205 -> 207 ;
208 [label="X[143] <= -0.895\ngini = 0.444\nsamples = 3\nvalue = [0, 0, 0, 0, 1, 0, 0, 2, 0, 0, 0, 0, 0, 0\n0, 0, 0, 0, 0, 0]"] ;
190 -> 208 ;
209 [label="gini = 0.0\nsamples = 1\nvalue = [0, 0, 0, 0, 1, 0, 0, 0, 0, 0, 0, 0, 0, 0\n0, 0, 0, 0, 0, 0]"] ;
208 -> 209 ;
210 [label="gini = 0.0\nsamples = 2\nvalue = [0, 0, 0, 0, 0, 0, 0, 2, 0, 0, 0, 0, 0, 0\n0, 0, 0, 0, 0, 0]"] ;
208 -> 210 ;
211 [label="X[85] <= 0.5\ngini = 0.882\nsamples = 34\nvalue = [0, 0, 1, 4, 5, 1, 0, 1, 6, 2, 5, 0, 3, 0\n0, 0, 1, 4, 0, 1]"] ;
183 -> 211 ;
212 [label="X[98] <= 0.5\ngini = 0.86\nsamples = 28\nvalue = [0, 0, 0, 4, 0, 1, 0, 1, 6, 2, 5, 0, 3, 0\n0, 0, 1, 4, 0, 1]"] ;
211 -> 212 ;
213 [label="X[110] <= 1.207\ngini = 0.839\nsamples = 23\nvalue = [0, 0, 0, 4, 0, 1, 0, 1, 6, 2, 4, 0, 3, 0\n0, 0, 1, 0, 0, 1]"] ;
212 -> 213 ;
214 [label="X[29] <= 0.5\ngini = 0.661\nsamples = 11\nvalue = [0, 0, 0, 1, 0, 1, 0, 0, 6, 1, 1, 0, 0, 0\n0, 0, 0, 0, 0, 1]"] ;
213 -> 214 ;
215 [label="X[35] <= 0.5\ngini = 0.245\nsamples = 7\nvalue = [0, 0, 0, 0, 0, 0, 0, 0, 6, 1, 0, 0, 0, 0\n0, 0, 0, 0, 0, 0]"] ;
214 -> 215 ;
216 [label="gini = 0.0\nsamples = 1\nvalue = [0, 0, 0, 0, 0, 0, 0, 0, 0, 1, 0, 0, 0, 0\n0, 0, 0, 0, 0, 0]"] ;
215 -> 216 ;
217 [label="gini = 0.0\nsamples = 6\nvalue = [0, 0, 0, 0, 0, 0, 0, 0, 6, 0, 0, 0, 0, 0\n0, 0, 0, 0, 0, 0]"] ;
215 -> 217 ;
218 [label="X[210] <= -0.957\ngini = 0.75\nsamples = 4\nvalue = [0, 0, 0, 1, 0, 1, 0, 0, 0, 0, 1, 0, 0, 0\n0, 0, 0, 0, 0, 1]"] ;
214 -> 218 ;
219 [label="gini = 0.0\nsamples = 1\nvalue = [0, 0, 0, 0, 0, 1, 0, 0, 0, 0, 0, 0, 0, 0\n0, 0, 0, 0, 0, 0]"] ;
218 -> 219 ;
220 [label="X[31] <= 0.5\ngini = 0.667\nsamples = 3\nvalue = [0, 0, 0, 1, 0, 0, 0, 0, 0, 0, 1, 0, 0, 0\n0, 0, 0, 0, 0, 1]"] ;
218 -> 220 ;
221 [label="gini = 0.0\nsamples = 1\nvalue = [0, 0, 0, 0, 0, 0, 0, 0, 0, 0, 1, 0, 0, 0\n0, 0, 0, 0, 0, 0]"] ;
220 -> 221 ;
222 [label="X[147] <= 0.785\ngini = 0.5\nsamples = 2\nvalue = [0, 0, 0, 1, 0, 0, 0, 0, 0, 0, 0, 0, 0, 0\n0, 0, 0, 0, 0, 1]"] ;
220 -> 222 ;
223 [label="gini = 0.0\nsamples = 1\nvalue = [0, 0, 0, 0, 0, 0, 0, 0, 0, 0, 0, 0, 0, 0\n0, 0, 0, 0, 0, 1]"] ;
222 -> 223 ;
224 [label="gini = 0.0\nsamples = 1\nvalue = [0, 0, 0, 1, 0, 0, 0, 0, 0, 0, 0, 0, 0, 0\n0, 0, 0, 0, 0, 0]"] ;
222 -> 224 ;
225 [label="X[138] <= 3.5\ngini = 0.792\nsamples = 12\nvalue = [0, 0, 0, 3, 0, 0, 0, 1, 0, 1, 3, 0, 3, 0\n0, 0, 1, 0, 0, 0]"] ;
213 -> 225 ;
226 [label="X[194] <= 0.5\ngini = 0.741\nsamples = 9\nvalue = [0, 0, 0, 0, 0, 0, 0, 1, 0, 1, 3, 0, 3, 0\n0, 0, 1, 0, 0, 0]"] ;
225 -> 226 ;
227 [label="gini = 0.0\nsamples = 3\nvalue = [0, 0, 0, 0, 0, 0, 0, 0, 0, 0, 0, 0, 3, 0\n0, 0, 0, 0, 0, 0]"] ;
226 -> 227 ;
228 [label="X[152] <= 1.167\ngini = 0.667\nsamples = 6\nvalue = [0, 0, 0, 0, 0, 0, 0, 1, 0, 1, 3, 0, 0, 0\n0, 0, 1, 0, 0, 0]"] ;
226 -> 228 ;
229 [label="gini = 0.0\nsamples = 3\nvalue = [0, 0, 0, 0, 0, 0, 0, 0, 0, 0, 3, 0, 0, 0\n0, 0, 0, 0, 0, 0]"] ;
228 -> 229 ;
230 [label="X[114] <= 0.5\ngini = 0.667\nsamples = 3\nvalue = [0, 0, 0, 0, 0, 0, 0, 1, 0, 1, 0, 0, 0, 0\n0, 0, 1, 0, 0, 0]"] ;
228 -> 230 ;
231 [label="gini = 0.0\nsamples = 1\nvalue = [0, 0, 0, 0, 0, 0, 0, 0, 0, 1, 0, 0, 0, 0\n0, 0, 0, 0, 0, 0]"] ;
230 -> 231 ;
232 [label="X[142] <= 0.425\ngini = 0.5\nsamples = 2\nvalue = [0, 0, 0, 0, 0, 0, 0, 1, 0, 0, 0, 0, 0, 0\n0, 0, 1, 0, 0, 0]"] ;
230 -> 232 ;
233 [label="gini = 0.0\nsamples = 1\nvalue = [0, 0, 0, 0, 0, 0, 0, 0, 0, 0, 0, 0, 0, 0\n0, 0, 1, 0, 0, 0]"] ;
232 -> 233 ;
234 [label="gini = 0.0\nsamples = 1\nvalue = [0, 0, 0, 0, 0, 0, 0, 1, 0, 0, 0, 0, 0, 0\n0, 0, 0, 0, 0, 0]"] ;
232 -> 234 ;
235 [label="gini = 0.0\nsamples = 3\nvalue = [0, 0, 0, 3, 0, 0, 0, 0, 0, 0, 0, 0, 0, 0\n0, 0, 0, 0, 0, 0]"] ;
225 -> 235 ;
236 [label="X[204] <= 6.068\ngini = 0.32\nsamples = 5\nvalue = [0, 0, 0, 0, 0, 0, 0, 0, 0, 0, 1, 0, 0, 0\n0, 0, 0, 4, 0, 0]"] ;
212 -> 236 ;
237 [label="gini = 0.0\nsamples = 4\nvalue = [0, 0, 0, 0, 0, 0, 0, 0, 0, 0, 0, 0, 0, 0\n0, 0, 0, 4, 0, 0]"] ;
236 -> 237 ;
238 [label="gini = 0.0\nsamples = 1\nvalue = [0, 0, 0, 0, 0, 0, 0, 0, 0, 0, 1, 0, 0, 0\n0, 0, 0, 0, 0, 0]"] ;
236 -> 238 ;
239 [label="X[140] <= 3.5\ngini = 0.278\nsamples = 6\nvalue = [0, 0, 1, 0, 5, 0, 0, 0, 0, 0, 0, 0, 0, 0\n0, 0, 0, 0, 0, 0]"] ;
211 -> 239 ;
240 [label="gini = 0.0\nsamples = 5\nvalue = [0, 0, 0, 0, 5, 0, 0, 0, 0, 0, 0, 0, 0, 0\n0, 0, 0, 0, 0, 0]"] ;
239 -> 240 ;
241 [label="gini = 0.0\nsamples = 1\nvalue = [0, 0, 1, 0, 0, 0, 0, 0, 0, 0, 0, 0, 0, 0\n0, 0, 0, 0, 0, 0]"] ;
239 -> 241 ;
242 [label="X[183] <= 0.5\ngini = 0.781\nsamples = 87\nvalue = [0, 38, 3, 6, 4, 3, 0, 2, 6, 5, 5, 0, 2, 0\n5, 0, 4, 3, 0, 1]"] ;
6 -> 242 ;
243 [label="X[215] <= -2.149\ngini = 0.437\nsamples = 51\nvalue = [0, 38, 2, 1, 1, 0, 0, 0, 2, 1, 2, 0, 1, 0\n0, 0, 1, 2, 0, 0]"] ;
242 -> 243 ;
244 [label="X[211] <= -2.857\ngini = 0.84\nsamples = 13\nvalue = [0, 4, 2, 1, 0, 0, 0, 0, 1, 1, 1, 0, 1, 0\n0, 0, 1, 1, 0, 0]"] ;
243 -> 244 ;
245 [label="gini = 0.0\nsamples = 3\nvalue = [0, 3, 0, 0, 0, 0, 0, 0, 0, 0, 0, 0, 0, 0\n0, 0, 0, 0, 0, 0]"] ;
244 -> 245 ;
246 [label="X[114] <= 2.532\ngini = 0.88\nsamples = 10\nvalue = [0, 1, 2, 1, 0, 0, 0, 0, 1, 1, 1, 0, 1, 0\n0, 0, 1, 1, 0, 0]"] ;
244 -> 246 ;
247 [label="X[44] <= 0.5\ngini = 0.875\nsamples = 8\nvalue = [0, 1, 0, 1, 0, 0, 0, 0, 1, 1, 1, 0, 1, 0\n0, 0, 1, 1, 0, 0]"] ;
246 -> 247 ;
248 [label="X[54] <= 0.5\ngini = 0.5\nsamples = 2\nvalue = [0, 0, 0, 0, 0, 0, 0, 0, 0, 1, 0, 0, 0, 0\n0, 0, 0, 1, 0, 0]"] ;
247 -> 248 ;
249 [label="gini = 0.0\nsamples = 1\nvalue = [0, 0, 0, 0, 0, 0, 0, 0, 0, 0, 0, 0, 0, 0\n0, 0, 0, 1, 0, 0]"] ;
248 -> 249 ;
250 [label="gini = 0.0\nsamples = 1\nvalue = [0, 0, 0, 0, 0, 0, 0, 0, 0, 1, 0, 0, 0, 0\n0, 0, 0, 0, 0, 0]"] ;
248 -> 250 ;
251 [label="X[37] <= 0.5\ngini = 0.833\nsamples = 6\nvalue = [0, 1, 0, 1, 0, 0, 0, 0, 1, 0, 1, 0, 1, 0\n0, 0, 1, 0, 0, 0]"] ;
247 -> 251 ;
252 [label="X[95] <= 0.5\ngini = 0.5\nsamples = 2\nvalue = [0, 0, 0, 1, 0, 0, 0, 0, 0, 0, 0, 0, 0, 0\n0, 0, 1, 0, 0, 0]"] ;
251 -> 252 ;
253 [label="gini = 0.0\nsamples = 1\nvalue = [0, 0, 0, 1, 0, 0, 0, 0, 0, 0, 0, 0, 0, 0\n0, 0, 0, 0, 0, 0]"] ;
252 -> 253 ;
254 [label="gini = 0.0\nsamples = 1\nvalue = [0, 0, 0, 0, 0, 0, 0, 0, 0, 0, 0, 0, 0, 0\n0, 0, 1, 0, 0, 0]"] ;
252 -> 254 ;
255 [label="X[150] <= 0.293\ngini = 0.75\nsamples = 4\nvalue = [0, 1, 0, 0, 0, 0, 0, 0, 1, 0, 1, 0, 1, 0\n0, 0, 0, 0, 0, 0]"] ;
251 -> 255 ;
256 [label="gini = 0.0\nsamples = 1\nvalue = [0, 0, 0, 0, 0, 0, 0, 0, 1, 0, 0, 0, 0, 0\n0, 0, 0, 0, 0, 0]"] ;
255 -> 256 ;
257 [label="X[199] <= 0.5\ngini = 0.667\nsamples = 3\nvalue = [0, 1, 0, 0, 0, 0, 0, 0, 0, 0, 1, 0, 1, 0\n0, 0, 0, 0, 0, 0]"] ;
255 -> 257 ;
258 [label="gini = 0.0\nsamples = 1\nvalue = [0, 0, 0, 0, 0, 0, 0, 0, 0, 0, 1, 0, 0, 0\n0, 0, 0, 0, 0, 0]"] ;
257 -> 258 ;
259 [label="X[194] <= 0.5\ngini = 0.5\nsamples = 2\nvalue = [0, 1, 0, 0, 0, 0, 0, 0, 0, 0, 0, 0, 1, 0\n0, 0, 0, 0, 0, 0]"] ;
257 -> 259 ;
260 [label="gini = 0.0\nsamples = 1\nvalue = [0, 0, 0, 0, 0, 0, 0, 0, 0, 0, 0, 0, 1, 0\n0, 0, 0, 0, 0, 0]"] ;
259 -> 260 ;
261 [label="gini = 0.0\nsamples = 1\nvalue = [0, 1, 0, 0, 0, 0, 0, 0, 0, 0, 0, 0, 0, 0\n0, 0, 0, 0, 0, 0]"] ;
259 -> 261 ;
262 [label="gini = 0.0\nsamples = 2\nvalue = [0, 0, 2, 0, 0, 0, 0, 0, 0, 0, 0, 0, 0, 0\n0, 0, 0, 0, 0, 0]"] ;
246 -> 262 ;
263 [label="X[144] <= -2.827\ngini = 0.197\nsamples = 38\nvalue = [0, 34, 0, 0, 1, 0, 0, 0, 1, 0, 1, 0, 0, 0\n0, 0, 0, 1, 0, 0]"] ;
243 -> 263 ;
264 [label="X[119] <= 2.207\ngini = 0.5\nsamples = 2\nvalue = [0, 0, 0, 0, 1, 0, 0, 0, 0, 0, 1, 0, 0, 0\n0, 0, 0, 0, 0, 0]"] ;
263 -> 264 ;
265 [label="gini = 0.0\nsamples = 1\nvalue = [0, 0, 0, 0, 1, 0, 0, 0, 0, 0, 0, 0, 0, 0\n0, 0, 0, 0, 0, 0]"] ;
264 -> 265 ;
266 [label="gini = 0.0\nsamples = 1\nvalue = [0, 0, 0, 0, 0, 0, 0, 0, 0, 0, 1, 0, 0, 0\n0, 0, 0, 0, 0, 0]"] ;
264 -> 266 ;
267 [label="X[145] <= 2.804\ngini = 0.106\nsamples = 36\nvalue = [0, 34, 0, 0, 0, 0, 0, 0, 1, 0, 0, 0, 0, 0\n0, 0, 0, 1, 0, 0]"] ;
263 -> 267 ;
268 [label="X[5] <= 0.5\ngini = 0.056\nsamples = 35\nvalue = [0, 34, 0, 0, 0, 0, 0, 0, 0, 0, 0, 0, 0, 0\n0, 0, 0, 1, 0, 0]"] ;
267 -> 268 ;
269 [label="gini = 0.0\nsamples = 34\nvalue = [0, 34, 0, 0, 0, 0, 0, 0, 0, 0, 0, 0, 0, 0\n0, 0, 0, 0, 0, 0]"] ;
268 -> 269 ;
270 [label="gini = 0.0\nsamples = 1\nvalue = [0, 0, 0, 0, 0, 0, 0, 0, 0, 0, 0, 0, 0, 0\n0, 0, 0, 1, 0, 0]"] ;
268 -> 270 ;
271 [label="gini = 0.0\nsamples = 1\nvalue = [0, 0, 0, 0, 0, 0, 0, 0, 1, 0, 0, 0, 0, 0\n0, 0, 0, 0, 0, 0]"] ;
267 -> 271 ;
272 [label="X[209] <= -0.504\ngini = 0.903\nsamples = 36\nvalue = [0, 0, 1, 5, 3, 3, 0, 2, 4, 4, 3, 0, 1, 0\n5, 0, 3, 1, 0, 1]"] ;
242 -> 272 ;
273 [label="X[110] <= 0.5\ngini = 0.765\nsamples = 14\nvalue = [0, 0, 0, 5, 0, 0, 0, 0, 3, 0, 3, 0, 0, 0\n0, 0, 1, 1, 0, 1]"] ;
272 -> 273 ;
274 [label="gini = 0.0\nsamples = 3\nvalue = [0, 0, 0, 0, 0, 0, 0, 0, 3, 0, 0, 0, 0, 0\n0, 0, 0, 0, 0, 0]"] ;
273 -> 274 ;
275 [label="X[153] <= -2.151\ngini = 0.694\nsamples = 11\nvalue = [0, 0, 0, 5, 0, 0, 0, 0, 0, 0, 3, 0, 0, 0\n0, 0, 1, 1, 0, 1]"] ;
273 -> 275 ;
276 [label="gini = 0.0\nsamples = 4\nvalue = [0, 0, 0, 4, 0, 0, 0, 0, 0, 0, 0, 0, 0, 0\n0, 0, 0, 0, 0, 0]"] ;
275 -> 276 ;
277 [label="X[143] <= -0.014\ngini = 0.735\nsamples = 7\nvalue = [0, 0, 0, 1, 0, 0, 0, 0, 0, 0, 3, 0, 0, 0\n0, 0, 1, 1, 0, 1]"] ;
275 -> 277 ;
278 [label="gini = 0.0\nsamples = 3\nvalue = [0, 0, 0, 0, 0, 0, 0, 0, 0, 0, 3, 0, 0, 0\n0, 0, 0, 0, 0, 0]"] ;
277 -> 278 ;
279 [label="X[157] <= -1.607\ngini = 0.75\nsamples = 4\nvalue = [0, 0, 0, 1, 0, 0, 0, 0, 0, 0, 0, 0, 0, 0\n0, 0, 1, 1, 0, 1]"] ;
277 -> 279 ;
280 [label="gini = 0.0\nsamples = 1\nvalue = [0, 0, 0, 0, 0, 0, 0, 0, 0, 0, 0, 0, 0, 0\n0, 0, 1, 0, 0, 0]"] ;
279 -> 280 ;
281 [label="X[149] <= -0.967\ngini = 0.667\nsamples = 3\nvalue = [0, 0, 0, 1, 0, 0, 0, 0, 0, 0, 0, 0, 0, 0\n0, 0, 0, 1, 0, 1]"] ;
279 -> 281 ;
282 [label="gini = 0.0\nsamples = 1\nvalue = [0, 0, 0, 0, 0, 0, 0, 0, 0, 0, 0, 0, 0, 0\n0, 0, 0, 1, 0, 0]"] ;
281 -> 282 ;
283 [label="X[141] <= 2.0\ngini = 0.5\nsamples = 2\nvalue = [0, 0, 0, 1, 0, 0, 0, 0, 0, 0, 0, 0, 0, 0\n0, 0, 0, 0, 0, 1]"] ;
281 -> 283 ;
284 [label="gini = 0.0\nsamples = 1\nvalue = [0, 0, 0, 0, 0, 0, 0, 0, 0, 0, 0, 0, 0, 0\n0, 0, 0, 0, 0, 1]"] ;
283 -> 284 ;
285 [label="gini = 0.0\nsamples = 1\nvalue = [0, 0, 0, 1, 0, 0, 0, 0, 0, 0, 0, 0, 0, 0\n0, 0, 0, 0, 0, 0]"] ;
283 -> 285 ;
286 [label="X[151] <= -0.444\ngini = 0.855\nsamples = 22\nvalue = [0, 0, 1, 0, 3, 3, 0, 2, 1, 4, 0, 0, 1, 0\n5, 0, 2, 0, 0, 0]"] ;
272 -> 286 ;
287 [label="X[10] <= 0.5\ngini = 0.32\nsamples = 5\nvalue = [0, 0, 0, 0, 0, 0, 0, 0, 0, 4, 0, 0, 1, 0\n0, 0, 0, 0, 0, 0]"] ;
286 -> 287 ;
288 [label="gini = 0.0\nsamples = 4\nvalue = [0, 0, 0, 0, 0, 0, 0, 0, 0, 4, 0, 0, 0, 0\n0, 0, 0, 0, 0, 0]"] ;
287 -> 288 ;
289 [label="gini = 0.0\nsamples = 1\nvalue = [0, 0, 0, 0, 0, 0, 0, 0, 0, 0, 0, 0, 1, 0\n0, 0, 0, 0, 0, 0]"] ;
287 -> 289 ;
290 [label="X[159] <= -0.055\ngini = 0.817\nsamples = 17\nvalue = [0, 0, 1, 0, 3, 3, 0, 2, 1, 0, 0, 0, 0, 0\n5, 0, 2, 0, 0, 0]"] ;
286 -> 290 ;
291 [label="X[88] <= 0.5\ngini = 0.78\nsamples = 10\nvalue = [0, 0, 0, 0, 2, 3, 0, 2, 1, 0, 0, 0, 0, 0\n0, 0, 2, 0, 0, 0]"] ;
290 -> 291 ;
292 [label="X[127] <= 1.5\ngini = 0.48\nsamples = 5\nvalue = [0, 0, 0, 0, 0, 3, 0, 0, 0, 0, 0, 0, 0, 0\n0, 0, 2, 0, 0, 0]"] ;
291 -> 292 ;
293 [label="gini = 0.0\nsamples = 2\nvalue = [0, 0, 0, 0, 0, 0, 0, 0, 0, 0, 0, 0, 0, 0\n0, 0, 2, 0, 0, 0]"] ;
292 -> 293 ;
294 [label="gini = 0.0\nsamples = 3\nvalue = [0, 0, 0, 0, 0, 3, 0, 0, 0, 0, 0, 0, 0, 0\n0, 0, 0, 0, 0, 0]"] ;
292 -> 294 ;
295 [label="X[28] <= 0.5\ngini = 0.64\nsamples = 5\nvalue = [0, 0, 0, 0, 2, 0, 0, 2, 1, 0, 0, 0, 0, 0\n0, 0, 0, 0, 0, 0]"] ;
291 -> 295 ;
296 [label="gini = 0.0\nsamples = 2\nvalue = [0, 0, 0, 0, 0, 0, 0, 2, 0, 0, 0, 0, 0, 0\n0, 0, 0, 0, 0, 0]"] ;
295 -> 296 ;
297 [label="X[147] <= 2.769\ngini = 0.444\nsamples = 3\nvalue = [0, 0, 0, 0, 2, 0, 0, 0, 1, 0, 0, 0, 0, 0\n0, 0, 0, 0, 0, 0]"] ;
295 -> 297 ;
298 [label="gini = 0.0\nsamples = 2\nvalue = [0, 0, 0, 0, 2, 0, 0, 0, 0, 0, 0, 0, 0, 0\n0, 0, 0, 0, 0, 0]"] ;
297 -> 298 ;
299 [label="gini = 0.0\nsamples = 1\nvalue = [0, 0, 0, 0, 0, 0, 0, 0, 1, 0, 0, 0, 0, 0\n0, 0, 0, 0, 0, 0]"] ;
297 -> 299 ;
300 [label="X[151] <= 2.333\ngini = 0.449\nsamples = 7\nvalue = [0, 0, 1, 0, 1, 0, 0, 0, 0, 0, 0, 0, 0, 0\n5, 0, 0, 0, 0, 0]"] ;
290 -> 300 ;
301 [label="gini = 0.0\nsamples = 5\nvalue = [0, 0, 0, 0, 0, 0, 0, 0, 0, 0, 0, 0, 0, 0\n5, 0, 0, 0, 0, 0]"] ;
300 -> 301 ;
302 [label="X[128] <= 1.5\ngini = 0.5\nsamples = 2\nvalue = [0, 0, 1, 0, 1, 0, 0, 0, 0, 0, 0, 0, 0, 0\n0, 0, 0, 0, 0, 0]"] ;
300 -> 302 ;
303 [label="gini = 0.0\nsamples = 1\nvalue = [0, 0, 1, 0, 0, 0, 0, 0, 0, 0, 0, 0, 0, 0\n0, 0, 0, 0, 0, 0]"] ;
302 -> 303 ;
304 [label="gini = 0.0\nsamples = 1\nvalue = [0, 0, 0, 0, 1, 0, 0, 0, 0, 0, 0, 0, 0, 0\n0, 0, 0, 0, 0, 0]"] ;
302 -> 304 ;
305 [label="X[200] <= 0.5\ngini = 0.835\nsamples = 134\nvalue = [0, 3, 9, 8, 5, 5, 0, 6, 6, 5, 8, 0, 6, 0\n5, 0, 4, 9, 49, 6]"] ;
5 -> 305 ;
306 [label="X[120] <= 0.5\ngini = 0.55\nsamples = 74\nvalue = [0, 1, 1, 0, 2, 2, 0, 2, 3, 3, 2, 0, 1, 0\n3, 0, 0, 4, 49, 1]"] ;
305 -> 306 ;
307 [label="X[215] <= -7.43\ngini = 0.202\nsamples = 46\nvalue = [0, 1, 0, 0, 1, 0, 0, 1, 0, 0, 0, 0, 0, 0\n0, 0, 0, 2, 41, 0]"] ;
306 -> 307 ;
308 [label="gini = 0.0\nsamples = 1\nvalue = [0, 0, 0, 0, 1, 0, 0, 0, 0, 0, 0, 0, 0, 0\n0, 0, 0, 0, 0, 0]"] ;
307 -> 308 ;
309 [label="X[142] <= -3.081\ngini = 0.167\nsamples = 45\nvalue = [0, 1, 0, 0, 0, 0, 0, 1, 0, 0, 0, 0, 0, 0\n0, 0, 0, 2, 41, 0]"] ;
307 -> 309 ;
310 [label="gini = 0.0\nsamples = 1\nvalue = [0, 1, 0, 0, 0, 0, 0, 0, 0, 0, 0, 0, 0, 0\n0, 0, 0, 0, 0, 0]"] ;
309 -> 310 ;
311 [label="X[98] <= 0.5\ngini = 0.129\nsamples = 44\nvalue = [0, 0, 0, 0, 0, 0, 0, 1, 0, 0, 0, 0, 0, 0\n0, 0, 0, 2, 41, 0]"] ;
309 -> 311 ;
312 [label="gini = 0.0\nsamples = 33\nvalue = [0, 0, 0, 0, 0, 0, 0, 0, 0, 0, 0, 0, 0, 0\n0, 0, 0, 0, 33, 0]"] ;
311 -> 312 ;
313 [label="X[152] <= -1.496\ngini = 0.43\nsamples = 11\nvalue = [0, 0, 0, 0, 0, 0, 0, 1, 0, 0, 0, 0, 0, 0\n0, 0, 0, 2, 8, 0]"] ;
311 -> 313 ;
314 [label="X[216] <= -0.376\ngini = 0.625\nsamples = 4\nvalue = [0, 0, 0, 0, 0, 0, 0, 1, 0, 0, 0, 0, 0, 0\n0, 0, 0, 2, 1, 0]"] ;
313 -> 314 ;
315 [label="gini = 0.0\nsamples = 2\nvalue = [0, 0, 0, 0, 0, 0, 0, 0, 0, 0, 0, 0, 0, 0\n0, 0, 0, 2, 0, 0]"] ;
314 -> 315 ;
316 [label="X[135] <= 2.0\ngini = 0.5\nsamples = 2\nvalue = [0, 0, 0, 0, 0, 0, 0, 1, 0, 0, 0, 0, 0, 0\n0, 0, 0, 0, 1, 0]"] ;
314 -> 316 ;
317 [label="gini = 0.0\nsamples = 1\nvalue = [0, 0, 0, 0, 0, 0, 0, 1, 0, 0, 0, 0, 0, 0\n0, 0, 0, 0, 0, 0]"] ;
316 -> 317 ;
318 [label="gini = 0.0\nsamples = 1\nvalue = [0, 0, 0, 0, 0, 0, 0, 0, 0, 0, 0, 0, 0, 0\n0, 0, 0, 0, 1, 0]"] ;
316 -> 318 ;
319 [label="gini = 0.0\nsamples = 7\nvalue = [0, 0, 0, 0, 0, 0, 0, 0, 0, 0, 0, 0, 0, 0\n0, 0, 0, 0, 7, 0]"] ;
313 -> 319 ;
320 [label="X[145] <= -2.763\ngini = 0.862\nsamples = 28\nvalue = [0, 0, 1, 0, 1, 2, 0, 1, 3, 3, 2, 0, 1, 0\n3, 0, 0, 2, 8, 1]"] ;
306 -> 320 ;
321 [label="gini = 0.0\nsamples = 3\nvalue = [0, 0, 0, 0, 0, 0, 0, 0, 0, 0, 0, 0, 0, 0\n3, 0, 0, 0, 0, 0]"] ;
320 -> 321 ;
322 [label="X[26] <= 0.5\ngini = 0.842\nsamples = 25\nvalue = [0, 0, 1, 0, 1, 2, 0, 1, 3, 3, 2, 0, 1, 0\n0, 0, 0, 2, 8, 1]"] ;
320 -> 322 ;
323 [label="X[207] <= -3.104\ngini = 0.89\nsamples = 20\nvalue = [0, 0, 1, 0, 1, 2, 0, 1, 3, 3, 2, 0, 1, 0\n0, 0, 0, 2, 3, 1]"] ;
322 -> 323 ;
324 [label="X[203] <= 3.548\ngini = 0.375\nsamples = 4\nvalue = [0, 0, 0, 0, 0, 0, 0, 0, 3, 0, 0, 0, 0, 0\n0, 0, 0, 0, 0, 1]"] ;
323 -> 324 ;
325 [label="gini = 0.0\nsamples = 3\nvalue = [0, 0, 0, 0, 0, 0, 0, 0, 3, 0, 0, 0, 0, 0\n0, 0, 0, 0, 0, 0]"] ;
324 -> 325 ;
326 [label="gini = 0.0\nsamples = 1\nvalue = [0, 0, 0, 0, 0, 0, 0, 0, 0, 0, 0, 0, 0, 0\n0, 0, 0, 0, 0, 1]"] ;
324 -> 326 ;
327 [label="X[83] <= 0.5\ngini = 0.867\nsamples = 16\nvalue = [0, 0, 1, 0, 1, 2, 0, 1, 0, 3, 2, 0, 1, 0\n0, 0, 0, 2, 3, 0]"] ;
323 -> 327 ;
328 [label="X[41] <= 0.5\ngini = 0.78\nsamples = 10\nvalue = [0, 0, 0, 0, 0, 2, 0, 0, 0, 0, 2, 0, 1, 0\n0, 0, 0, 2, 3, 0]"] ;
327 -> 328 ;
329 [label="X[204] <= 1.095\ngini = 0.375\nsamples = 4\nvalue = [0, 0, 0, 0, 0, 0, 0, 0, 0, 0, 0, 0, 1, 0\n0, 0, 0, 0, 3, 0]"] ;
328 -> 329 ;
330 [label="gini = 0.0\nsamples = 3\nvalue = [0, 0, 0, 0, 0, 0, 0, 0, 0, 0, 0, 0, 0, 0\n0, 0, 0, 0, 3, 0]"] ;
329 -> 330 ;
331 [label="gini = 0.0\nsamples = 1\nvalue = [0, 0, 0, 0, 0, 0, 0, 0, 0, 0, 0, 0, 1, 0\n0, 0, 0, 0, 0, 0]"] ;
329 -> 331 ;
332 [label="X[116] <= 3.081\ngini = 0.667\nsamples = 6\nvalue = [0, 0, 0, 0, 0, 2, 0, 0, 0, 0, 2, 0, 0, 0\n0, 0, 0, 2, 0, 0]"] ;
328 -> 332 ;
333 [label="X[139] <= 1.5\ngini = 0.5\nsamples = 4\nvalue = [0, 0, 0, 0, 0, 2, 0, 0, 0, 0, 2, 0, 0, 0\n0, 0, 0, 0, 0, 0]"] ;
332 -> 333 ;
334 [label="gini = 0.0\nsamples = 2\nvalue = [0, 0, 0, 0, 0, 0, 0, 0, 0, 0, 2, 0, 0, 0\n0, 0, 0, 0, 0, 0]"] ;
333 -> 334 ;
335 [label="gini = 0.0\nsamples = 2\nvalue = [0, 0, 0, 0, 0, 2, 0, 0, 0, 0, 0, 0, 0, 0\n0, 0, 0, 0, 0, 0]"] ;
333 -> 335 ;
336 [label="gini = 0.0\nsamples = 2\nvalue = [0, 0, 0, 0, 0, 0, 0, 0, 0, 0, 0, 0, 0, 0\n0, 0, 0, 2, 0, 0]"] ;
332 -> 336 ;
337 [label="X[121] <= 2.618\ngini = 0.667\nsamples = 6\nvalue = [0, 0, 1, 0, 1, 0, 0, 1, 0, 3, 0, 0, 0, 0\n0, 0, 0, 0, 0, 0]"] ;
327 -> 337 ;
338 [label="gini = 0.0\nsamples = 3\nvalue = [0, 0, 0, 0, 0, 0, 0, 0, 0, 3, 0, 0, 0, 0\n0, 0, 0, 0, 0, 0]"] ;
337 -> 338 ;
339 [label="X[88] <= 0.5\ngini = 0.667\nsamples = 3\nvalue = [0, 0, 1, 0, 1, 0, 0, 1, 0, 0, 0, 0, 0, 0\n0, 0, 0, 0, 0, 0]"] ;
337 -> 339 ;
340 [label="X[131] <= 2.0\ngini = 0.5\nsamples = 2\nvalue = [0, 0, 1, 0, 1, 0, 0, 0, 0, 0, 0, 0, 0, 0\n0, 0, 0, 0, 0, 0]"] ;
339 -> 340 ;
341 [label="gini = 0.0\nsamples = 1\nvalue = [0, 0, 0, 0, 1, 0, 0, 0, 0, 0, 0, 0, 0, 0\n0, 0, 0, 0, 0, 0]"] ;
340 -> 341 ;
342 [label="gini = 0.0\nsamples = 1\nvalue = [0, 0, 1, 0, 0, 0, 0, 0, 0, 0, 0, 0, 0, 0\n0, 0, 0, 0, 0, 0]"] ;
340 -> 342 ;
343 [label="gini = 0.0\nsamples = 1\nvalue = [0, 0, 0, 0, 0, 0, 0, 1, 0, 0, 0, 0, 0, 0\n0, 0, 0, 0, 0, 0]"] ;
339 -> 343 ;
344 [label="gini = 0.0\nsamples = 5\nvalue = [0, 0, 0, 0, 0, 0, 0, 0, 0, 0, 0, 0, 0, 0\n0, 0, 0, 0, 5, 0]"] ;
322 -> 344 ;
345 [label="X[83] <= 0.5\ngini = 0.914\nsamples = 60\nvalue = [0, 2, 8, 8, 3, 3, 0, 4, 3, 2, 6, 0, 5, 0\n2, 0, 4, 5, 0, 5]"] ;
305 -> 345 ;
346 [label="X[91] <= 0.5\ngini = 0.898\nsamples = 43\nvalue = [0, 1, 0, 8, 3, 3, 0, 3, 1, 2, 5, 0, 5, 0\n1, 0, 3, 4, 0, 4]"] ;
345 -> 346 ;
347 [label="X[84] <= 0.5\ngini = 0.885\nsamples = 37\nvalue = [0, 1, 0, 8, 3, 3, 0, 3, 1, 2, 0, 0, 5, 0\n1, 0, 3, 4, 0, 3]"] ;
346 -> 347 ;
348 [label="X[93] <= 0.5\ngini = 0.891\nsamples = 26\nvalue = [0, 1, 0, 0, 2, 2, 0, 3, 1, 2, 0, 0, 4, 0\n1, 0, 3, 4, 0, 3]"] ;
347 -> 348 ;
349 [label="X[98] <= 0.5\ngini = 0.88\nsamples = 21\nvalue = [0, 1, 0, 0, 2, 2, 0, 3, 1, 2, 0, 0, 0, 0\n1, 0, 2, 4, 0, 3]"] ;
348 -> 349 ;
350 [label="X[109] <= 0.5\ngini = 0.859\nsamples = 16\nvalue = [0, 0, 0, 0, 2, 2, 0, 3, 1, 2, 0, 0, 0, 0\n1, 0, 2, 0, 0, 3]"] ;
349 -> 350 ;
351 [label="gini = 0.0\nsamples = 3\nvalue = [0, 0, 0, 0, 0, 0, 0, 3, 0, 0, 0, 0, 0, 0\n0, 0, 0, 0, 0, 0]"] ;
350 -> 351 ;
352 [label="X[196] <= 0.5\ngini = 0.84\nsamples = 13\nvalue = [0, 0, 0, 0, 2, 2, 0, 0, 1, 2, 0, 0, 0, 0\n1, 0, 2, 0, 0, 3]"] ;
350 -> 352 ;
353 [label="X[145] <= -1.864\ngini = 0.82\nsamples = 10\nvalue = [0, 0, 0, 0, 2, 2, 0, 0, 1, 2, 0, 0, 0, 0\n1, 0, 2, 0, 0, 0]"] ;
352 -> 353 ;
354 [label="gini = 0.0\nsamples = 2\nvalue = [0, 0, 0, 0, 0, 2, 0, 0, 0, 0, 0, 0, 0, 0\n0, 0, 0, 0, 0, 0]"] ;
353 -> 354 ;
355 [label="X[145] <= -1.189\ngini = 0.781\nsamples = 8\nvalue = [0, 0, 0, 0, 2, 0, 0, 0, 1, 2, 0, 0, 0, 0\n1, 0, 2, 0, 0, 0]"] ;
353 -> 355 ;
356 [label="gini = 0.0\nsamples = 2\nvalue = [0, 0, 0, 0, 2, 0, 0, 0, 0, 0, 0, 0, 0, 0\n0, 0, 0, 0, 0, 0]"] ;
355 -> 356 ;
357 [label="X[192] <= 0.5\ngini = 0.722\nsamples = 6\nvalue = [0, 0, 0, 0, 0, 0, 0, 0, 1, 2, 0, 0, 0, 0\n1, 0, 2, 0, 0, 0]"] ;
355 -> 357 ;
358 [label="X[146] <= 0.029\ngini = 0.625\nsamples = 4\nvalue = [0, 0, 0, 0, 0, 0, 0, 0, 1, 2, 0, 0, 0, 0\n1, 0, 0, 0, 0, 0]"] ;
357 -> 358 ;
359 [label="gini = 0.0\nsamples = 2\nvalue = [0, 0, 0, 0, 0, 0, 0, 0, 0, 2, 0, 0, 0, 0\n0, 0, 0, 0, 0, 0]"] ;
358 -> 359 ;
360 [label="gini = 0.5\nsamples = 2\nvalue = [0, 0, 0, 0, 0, 0, 0, 0, 1, 0, 0, 0, 0, 0\n1, 0, 0, 0, 0, 0]"] ;
358 -> 360 ;
361 [label="gini = 0.0\nsamples = 2\nvalue = [0, 0, 0, 0, 0, 0, 0, 0, 0, 0, 0, 0, 0, 0\n0, 0, 2, 0, 0, 0]"] ;
357 -> 361 ;
362 [label="gini = 0.0\nsamples = 3\nvalue = [0, 0, 0, 0, 0, 0, 0, 0, 0, 0, 0, 0, 0, 0\n0, 0, 0, 0, 0, 3]"] ;
352 -> 362 ;
363 [label="X[175] <= 96.0\ngini = 0.32\nsamples = 5\nvalue = [0, 1, 0, 0, 0, 0, 0, 0, 0, 0, 0, 0, 0, 0\n0, 0, 0, 4, 0, 0]"] ;
349 -> 363 ;
364 [label="gini = 0.0\nsamples = 1\nvalue = [0, 1, 0, 0, 0, 0, 0, 0, 0, 0, 0, 0, 0, 0\n0, 0, 0, 0, 0, 0]"] ;
363 -> 364 ;
365 [label="gini = 0.0\nsamples = 4\nvalue = [0, 0, 0, 0, 0, 0, 0, 0, 0, 0, 0, 0, 0, 0\n0, 0, 0, 4, 0, 0]"] ;
363 -> 365 ;
366 [label="X[114] <= 1.707\ngini = 0.32\nsamples = 5\nvalue = [0, 0, 0, 0, 0, 0, 0, 0, 0, 0, 0, 0, 4, 0\n0, 0, 1, 0, 0, 0]"] ;
348 -> 366 ;
367 [label="gini = 0.0\nsamples = 4\nvalue = [0, 0, 0, 0, 0, 0, 0, 0, 0, 0, 0, 0, 4, 0\n0, 0, 0, 0, 0, 0]"] ;
366 -> 367 ;
368 [label="gini = 0.0\nsamples = 1\nvalue = [0, 0, 0, 0, 0, 0, 0, 0, 0, 0, 0, 0, 0, 0\n0, 0, 1, 0, 0, 0]"] ;
366 -> 368 ;
369 [label="X[24] <= 0.5\ngini = 0.446\nsamples = 11\nvalue = [0, 0, 0, 8, 1, 1, 0, 0, 0, 0, 0, 0, 1, 0\n0, 0, 0, 0, 0, 0]"] ;
347 -> 369 ;
370 [label="X[217] <= 4.001\ngini = 0.198\nsamples = 9\nvalue = [0, 0, 0, 8, 0, 0, 0, 0, 0, 0, 0, 0, 1, 0\n0, 0, 0, 0, 0, 0]"] ;
369 -> 370 ;
371 [label="gini = 0.0\nsamples = 8\nvalue = [0, 0, 0, 8, 0, 0, 0, 0, 0, 0, 0, 0, 0, 0\n0, 0, 0, 0, 0, 0]"] ;
370 -> 371 ;
372 [label="gini = 0.0\nsamples = 1\nvalue = [0, 0, 0, 0, 0, 0, 0, 0, 0, 0, 0, 0, 1, 0\n0, 0, 0, 0, 0, 0]"] ;
370 -> 372 ;
373 [label="X[48] <= 0.5\ngini = 0.5\nsamples = 2\nvalue = [0, 0, 0, 0, 1, 1, 0, 0, 0, 0, 0, 0, 0, 0\n0, 0, 0, 0, 0, 0]"] ;
369 -> 373 ;
374 [label="gini = 0.0\nsamples = 1\nvalue = [0, 0, 0, 0, 0, 1, 0, 0, 0, 0, 0, 0, 0, 0\n0, 0, 0, 0, 0, 0]"] ;
373 -> 374 ;
375 [label="gini = 0.0\nsamples = 1\nvalue = [0, 0, 0, 0, 1, 0, 0, 0, 0, 0, 0, 0, 0, 0\n0, 0, 0, 0, 0, 0]"] ;
373 -> 375 ;
376 [label="X[115] <= 0.707\ngini = 0.278\nsamples = 6\nvalue = [0, 0, 0, 0, 0, 0, 0, 0, 0, 0, 5, 0, 0, 0\n0, 0, 0, 0, 0, 1]"] ;
346 -> 376 ;
377 [label="gini = 0.0\nsamples = 1\nvalue = [0, 0, 0, 0, 0, 0, 0, 0, 0, 0, 0, 0, 0, 0\n0, 0, 0, 0, 0, 1]"] ;
376 -> 377 ;
378 [label="gini = 0.0\nsamples = 5\nvalue = [0, 0, 0, 0, 0, 0, 0, 0, 0, 0, 5, 0, 0, 0\n0, 0, 0, 0, 0, 0]"] ;
376 -> 378 ;
379 [label="X[184] <= 0.5\ngini = 0.74\nsamples = 17\nvalue = [0, 1, 8, 0, 0, 0, 0, 1, 2, 0, 1, 0, 0, 0\n1, 0, 1, 1, 0, 1]"] ;
345 -> 379 ;
380 [label="X[132] <= 3.5\ngini = 0.34\nsamples = 10\nvalue = [0, 0, 8, 0, 0, 0, 0, 0, 1, 0, 1, 0, 0, 0\n0, 0, 0, 0, 0, 0]"] ;
379 -> 380 ;
381 [label="gini = 0.0\nsamples = 8\nvalue = [0, 0, 8, 0, 0, 0, 0, 0, 0, 0, 0, 0, 0, 0\n0, 0, 0, 0, 0, 0]"] ;
380 -> 381 ;
382 [label="X[156] <= 0.897\ngini = 0.5\nsamples = 2\nvalue = [0, 0, 0, 0, 0, 0, 0, 0, 1, 0, 1, 0, 0, 0\n0, 0, 0, 0, 0, 0]"] ;
380 -> 382 ;
383 [label="gini = 0.0\nsamples = 1\nvalue = [0, 0, 0, 0, 0, 0, 0, 0, 0, 0, 1, 0, 0, 0\n0, 0, 0, 0, 0, 0]"] ;
382 -> 383 ;
384 [label="gini = 0.0\nsamples = 1\nvalue = [0, 0, 0, 0, 0, 0, 0, 0, 1, 0, 0, 0, 0, 0\n0, 0, 0, 0, 0, 0]"] ;
382 -> 384 ;
385 [label="X[122] <= 1.5\ngini = 0.857\nsamples = 7\nvalue = [0, 1, 0, 0, 0, 0, 0, 1, 1, 0, 0, 0, 0, 0\n1, 0, 1, 1, 0, 1]"] ;
379 -> 385 ;
386 [label="gini = 0.0\nsamples = 1\nvalue = [0, 0, 0, 0, 0, 0, 0, 0, 1, 0, 0, 0, 0, 0\n0, 0, 0, 0, 0, 0]"] ;
385 -> 386 ;
387 [label="X[219] <= -2.271\ngini = 0.833\nsamples = 6\nvalue = [0, 1, 0, 0, 0, 0, 0, 1, 0, 0, 0, 0, 0, 0\n1, 0, 1, 1, 0, 1]"] ;
385 -> 387 ;
388 [label="gini = 0.0\nsamples = 1\nvalue = [0, 0, 0, 0, 0, 0, 0, 0, 0, 0, 0, 0, 0, 0\n0, 0, 1, 0, 0, 0]"] ;
387 -> 388 ;
389 [label="X[190] <= 0.5\ngini = 0.8\nsamples = 5\nvalue = [0, 1, 0, 0, 0, 0, 0, 1, 0, 0, 0, 0, 0, 0\n1, 0, 0, 1, 0, 1]"] ;
387 -> 389 ;
390 [label="X[73] <= 0.5\ngini = 0.5\nsamples = 2\nvalue = [0, 1, 0, 0, 0, 0, 0, 0, 0, 0, 0, 0, 0, 0\n0, 0, 0, 0, 0, 1]"] ;
389 -> 390 ;
391 [label="gini = 0.0\nsamples = 1\nvalue = [0, 1, 0, 0, 0, 0, 0, 0, 0, 0, 0, 0, 0, 0\n0, 0, 0, 0, 0, 0]"] ;
390 -> 391 ;
392 [label="gini = 0.0\nsamples = 1\nvalue = [0, 0, 0, 0, 0, 0, 0, 0, 0, 0, 0, 0, 0, 0\n0, 0, 0, 0, 0, 1]"] ;
390 -> 392 ;
393 [label="X[40] <= 0.5\ngini = 0.667\nsamples = 3\nvalue = [0, 0, 0, 0, 0, 0, 0, 1, 0, 0, 0, 0, 0, 0\n1, 0, 0, 1, 0, 0]"] ;
389 -> 393 ;
394 [label="X[6] <= 0.5\ngini = 0.5\nsamples = 2\nvalue = [0, 0, 0, 0, 0, 0, 0, 1, 0, 0, 0, 0, 0, 0\n1, 0, 0, 0, 0, 0]"] ;
393 -> 394 ;
395 [label="gini = 0.0\nsamples = 1\nvalue = [0, 0, 0, 0, 0, 0, 0, 0, 0, 0, 0, 0, 0, 0\n1, 0, 0, 0, 0, 0]"] ;
394 -> 395 ;
396 [label="gini = 0.0\nsamples = 1\nvalue = [0, 0, 0, 0, 0, 0, 0, 1, 0, 0, 0, 0, 0, 0\n0, 0, 0, 0, 0, 0]"] ;
394 -> 396 ;
397 [label="gini = 0.0\nsamples = 1\nvalue = [0, 0, 0, 0, 0, 0, 0, 0, 0, 0, 0, 0, 0, 0\n0, 0, 0, 1, 0, 0]"] ;
393 -> 397 ;
398 [label="X[182] <= 0.5\ngini = 0.836\nsamples = 158\nvalue = [58, 6, 3, 10, 4, 5, 0, 6, 7, 9, 8, 0, 11, 0\n5, 0, 6, 7, 5, 8]"] ;
4 -> 398 ;
399 [label="X[113] <= 2.532\ngini = 0.555\nsamples = 88\nvalue = [58, 2, 0, 1, 1, 1, 0, 2, 4, 3, 3, 0, 4, 0\n0, 0, 3, 1, 3, 2]"] ;
398 -> 399 ;
400 [label="X[157] <= -2.806\ngini = 0.344\nsamples = 57\nvalue = [46, 1, 0, 1, 0, 1, 0, 0, 1, 0, 2, 0, 1, 0\n0, 0, 2, 1, 1, 0]"] ;
399 -> 400 ;
401 [label="X[111] <= 2.618\ngini = 0.625\nsamples = 4\nvalue = [1, 0, 0, 0, 0, 0, 0, 0, 0, 0, 0, 0, 0, 0\n0, 0, 2, 1, 0, 0]"] ;
400 -> 401 ;
402 [label="gini = 0.0\nsamples = 2\nvalue = [0, 0, 0, 0, 0, 0, 0, 0, 0, 0, 0, 0, 0, 0\n0, 0, 2, 0, 0, 0]"] ;
401 -> 402 ;
403 [label="X[54] <= 0.5\ngini = 0.5\nsamples = 2\nvalue = [1, 0, 0, 0, 0, 0, 0, 0, 0, 0, 0, 0, 0, 0\n0, 0, 0, 1, 0, 0]"] ;
401 -> 403 ;
404 [label="gini = 0.0\nsamples = 1\nvalue = [0, 0, 0, 0, 0, 0, 0, 0, 0, 0, 0, 0, 0, 0\n0, 0, 0, 1, 0, 0]"] ;
403 -> 404 ;
405 [label="gini = 0.0\nsamples = 1\nvalue = [1, 0, 0, 0, 0, 0, 0, 0, 0, 0, 0, 0, 0, 0\n0, 0, 0, 0, 0, 0]"] ;
403 -> 405 ;
406 [label="X[4] <= 0.5\ngini = 0.276\nsamples = 53\nvalue = [45, 1, 0, 1, 0, 1, 0, 0, 1, 0, 2, 0, 1, 0\n0, 0, 0, 0, 1, 0]"] ;
400 -> 406 ;
407 [label="X[116] <= 0.5\ngini = 0.219\nsamples = 51\nvalue = [45, 1, 0, 1, 0, 1, 0, 0, 1, 0, 1, 0, 1, 0\n0, 0, 0, 0, 0, 0]"] ;
406 -> 407 ;
408 [label="gini = 0.0\nsamples = 1\nvalue = [0, 1, 0, 0, 0, 0, 0, 0, 0, 0, 0, 0, 0, 0\n0, 0, 0, 0, 0, 0]"] ;
407 -> 408 ;
409 [label="X[215] <= -2.552\ngini = 0.188\nsamples = 50\nvalue = [45, 0, 0, 1, 0, 1, 0, 0, 1, 0, 1, 0, 1, 0\n0, 0, 0, 0, 0, 0]"] ;
407 -> 409 ;
410 [label="X[218] <= -2.782\ngini = 0.625\nsamples = 12\nvalue = [7, 0, 0, 1, 0, 1, 0, 0, 1, 0, 1, 0, 1, 0\n0, 0, 0, 0, 0, 0]"] ;
409 -> 410 ;
411 [label="gini = 0.0\nsamples = 6\nvalue = [6, 0, 0, 0, 0, 0, 0, 0, 0, 0, 0, 0, 0, 0\n0, 0, 0, 0, 0, 0]"] ;
410 -> 411 ;
412 [label="X[147] <= -1.391\ngini = 0.833\nsamples = 6\nvalue = [1, 0, 0, 1, 0, 1, 0, 0, 1, 0, 1, 0, 1, 0\n0, 0, 0, 0, 0, 0]"] ;
410 -> 412 ;
413 [label="gini = 0.0\nsamples = 1\nvalue = [0, 0, 0, 0, 0, 1, 0, 0, 0, 0, 0, 0, 0, 0\n0, 0, 0, 0, 0, 0]"] ;
412 -> 413 ;
414 [label="X[32] <= 0.5\ngini = 0.8\nsamples = 5\nvalue = [1, 0, 0, 1, 0, 0, 0, 0, 1, 0, 1, 0, 1, 0\n0, 0, 0, 0, 0, 0]"] ;
412 -> 414 ;
415 [label="X[79] <= 0.5\ngini = 0.667\nsamples = 3\nvalue = [0, 0, 0, 1, 0, 0, 0, 0, 0, 0, 1, 0, 1, 0\n0, 0, 0, 0, 0, 0]"] ;
414 -> 415 ;
416 [label="gini = 0.0\nsamples = 1\nvalue = [0, 0, 0, 1, 0, 0, 0, 0, 0, 0, 0, 0, 0, 0\n0, 0, 0, 0, 0, 0]"] ;
415 -> 416 ;
417 [label="X[109] <= 2.532\ngini = 0.5\nsamples = 2\nvalue = [0, 0, 0, 0, 0, 0, 0, 0, 0, 0, 1, 0, 1, 0\n0, 0, 0, 0, 0, 0]"] ;
415 -> 417 ;
418 [label="gini = 0.0\nsamples = 1\nvalue = [0, 0, 0, 0, 0, 0, 0, 0, 0, 0, 1, 0, 0, 0\n0, 0, 0, 0, 0, 0]"] ;
417 -> 418 ;
419 [label="gini = 0.0\nsamples = 1\nvalue = [0, 0, 0, 0, 0, 0, 0, 0, 0, 0, 0, 0, 1, 0\n0, 0, 0, 0, 0, 0]"] ;
417 -> 419 ;
420 [label="X[11] <= 0.5\ngini = 0.5\nsamples = 2\nvalue = [1, 0, 0, 0, 0, 0, 0, 0, 1, 0, 0, 0, 0, 0\n0, 0, 0, 0, 0, 0]"] ;
414 -> 420 ;
421 [label="gini = 0.0\nsamples = 1\nvalue = [1, 0, 0, 0, 0, 0, 0, 0, 0, 0, 0, 0, 0, 0\n0, 0, 0, 0, 0, 0]"] ;
420 -> 421 ;
422 [label="gini = 0.0\nsamples = 1\nvalue = [0, 0, 0, 0, 0, 0, 0, 0, 1, 0, 0, 0, 0, 0\n0, 0, 0, 0, 0, 0]"] ;
420 -> 422 ;
423 [label="gini = 0.0\nsamples = 38\nvalue = [38, 0, 0, 0, 0, 0, 0, 0, 0, 0, 0, 0, 0, 0\n0, 0, 0, 0, 0, 0]"] ;
409 -> 423 ;
424 [label="X[169] <= 144.5\ngini = 0.5\nsamples = 2\nvalue = [0, 0, 0, 0, 0, 0, 0, 0, 0, 0, 1, 0, 0, 0\n0, 0, 0, 0, 1, 0]"] ;
406 -> 424 ;
425 [label="gini = 0.0\nsamples = 1\nvalue = [0, 0, 0, 0, 0, 0, 0, 0, 0, 0, 0, 0, 0, 0\n0, 0, 0, 0, 1, 0]"] ;
424 -> 425 ;
426 [label="gini = 0.0\nsamples = 1\nvalue = [0, 0, 0, 0, 0, 0, 0, 0, 0, 0, 1, 0, 0, 0\n0, 0, 0, 0, 0, 0]"] ;
424 -> 426 ;
427 [label="X[102] <= 0.5\ngini = 0.805\nsamples = 31\nvalue = [12, 1, 0, 0, 1, 0, 0, 2, 3, 3, 1, 0, 3, 0\n0, 0, 1, 0, 2, 2]"] ;
399 -> 427 ;
428 [label="X[145] <= 2.143\ngini = 0.615\nsamples = 20\nvalue = [12, 0, 0, 0, 1, 0, 0, 1, 1, 1, 1, 0, 2, 0\n0, 0, 1, 0, 0, 0]"] ;
427 -> 428 ;
429 [label="X[154] <= -2.172\ngini = 0.347\nsamples = 15\nvalue = [12, 0, 0, 0, 0, 0, 0, 0, 0, 1, 1, 0, 1, 0\n0, 0, 0, 0, 0, 0]"] ;
428 -> 429 ;
430 [label="X[111] <= 1.803\ngini = 0.667\nsamples = 3\nvalue = [0, 0, 0, 0, 0, 0, 0, 0, 0, 1, 1, 0, 1, 0\n0, 0, 0, 0, 0, 0]"] ;
429 -> 430 ;
431 [label="X[189] <= 0.5\ngini = 0.5\nsamples = 2\nvalue = [0, 0, 0, 0, 0, 0, 0, 0, 0, 1, 1, 0, 0, 0\n0, 0, 0, 0, 0, 0]"] ;
430 -> 431 ;
432 [label="gini = 0.0\nsamples = 1\nvalue = [0, 0, 0, 0, 0, 0, 0, 0, 0, 0, 1, 0, 0, 0\n0, 0, 0, 0, 0, 0]"] ;
431 -> 432 ;
433 [label="gini = 0.0\nsamples = 1\nvalue = [0, 0, 0, 0, 0, 0, 0, 0, 0, 1, 0, 0, 0, 0\n0, 0, 0, 0, 0, 0]"] ;
431 -> 433 ;
434 [label="gini = 0.0\nsamples = 1\nvalue = [0, 0, 0, 0, 0, 0, 0, 0, 0, 0, 0, 0, 1, 0\n0, 0, 0, 0, 0, 0]"] ;
430 -> 434 ;
435 [label="gini = 0.0\nsamples = 12\nvalue = [12, 0, 0, 0, 0, 0, 0, 0, 0, 0, 0, 0, 0, 0\n0, 0, 0, 0, 0, 0]"] ;
429 -> 435 ;
436 [label="X[50] <= 0.5\ngini = 0.8\nsamples = 5\nvalue = [0, 0, 0, 0, 1, 0, 0, 1, 1, 0, 0, 0, 1, 0\n0, 0, 1, 0, 0, 0]"] ;
428 -> 436 ;
437 [label="gini = 0.0\nsamples = 1\nvalue = [0, 0, 0, 0, 0, 0, 0, 1, 0, 0, 0, 0, 0, 0\n0, 0, 0, 0, 0, 0]"] ;
436 -> 437 ;
438 [label="X[181] <= 77.5\ngini = 0.75\nsamples = 4\nvalue = [0, 0, 0, 0, 1, 0, 0, 0, 1, 0, 0, 0, 1, 0\n0, 0, 1, 0, 0, 0]"] ;
436 -> 438 ;
439 [label="gini = 0.0\nsamples = 1\nvalue = [0, 0, 0, 0, 0, 0, 0, 0, 1, 0, 0, 0, 0, 0\n0, 0, 0, 0, 0, 0]"] ;
438 -> 439 ;
440 [label="X[144] <= -0.186\ngini = 0.667\nsamples = 3\nvalue = [0, 0, 0, 0, 1, 0, 0, 0, 0, 0, 0, 0, 1, 0\n0, 0, 1, 0, 0, 0]"] ;
438 -> 440 ;
441 [label="gini = 0.0\nsamples = 1\nvalue = [0, 0, 0, 0, 0, 0, 0, 0, 0, 0, 0, 0, 1, 0\n0, 0, 0, 0, 0, 0]"] ;
440 -> 441 ;
442 [label="X[213] <= 6.664\ngini = 0.5\nsamples = 2\nvalue = [0, 0, 0, 0, 1, 0, 0, 0, 0, 0, 0, 0, 0, 0\n0, 0, 1, 0, 0, 0]"] ;
440 -> 442 ;
443 [label="gini = 0.0\nsamples = 1\nvalue = [0, 0, 0, 0, 0, 0, 0, 0, 0, 0, 0, 0, 0, 0\n0, 0, 1, 0, 0, 0]"] ;
442 -> 443 ;
444 [label="gini = 0.0\nsamples = 1\nvalue = [0, 0, 0, 0, 1, 0, 0, 0, 0, 0, 0, 0, 0, 0\n0, 0, 0, 0, 0, 0]"] ;
442 -> 444 ;
445 [label="X[117] <= 1.707\ngini = 0.843\nsamples = 11\nvalue = [0, 1, 0, 0, 0, 0, 0, 1, 2, 2, 0, 0, 1, 0\n0, 0, 0, 0, 2, 2]"] ;
427 -> 445 ;
446 [label="gini = 0.0\nsamples = 2\nvalue = [0, 0, 0, 0, 0, 0, 0, 0, 0, 0, 0, 0, 0, 0\n0, 0, 0, 0, 0, 2]"] ;
445 -> 446 ;
447 [label="X[210] <= -3.942\ngini = 0.815\nsamples = 9\nvalue = [0, 1, 0, 0, 0, 0, 0, 1, 2, 2, 0, 0, 1, 0\n0, 0, 0, 0, 2, 0]"] ;
445 -> 447 ;
448 [label="gini = 0.0\nsamples = 2\nvalue = [0, 0, 0, 0, 0, 0, 0, 0, 0, 0, 0, 0, 0, 0\n0, 0, 0, 0, 2, 0]"] ;
447 -> 448 ;
449 [label="X[161] <= -1.868\ngini = 0.776\nsamples = 7\nvalue = [0, 1, 0, 0, 0, 0, 0, 1, 2, 2, 0, 0, 1, 0\n0, 0, 0, 0, 0, 0]"] ;
447 -> 449 ;
450 [label="gini = 0.0\nsamples = 2\nvalue = [0, 0, 0, 0, 0, 0, 0, 0, 0, 2, 0, 0, 0, 0\n0, 0, 0, 0, 0, 0]"] ;
449 -> 450 ;
451 [label="X[174] <= 144.0\ngini = 0.72\nsamples = 5\nvalue = [0, 1, 0, 0, 0, 0, 0, 1, 2, 0, 0, 0, 1, 0\n0, 0, 0, 0, 0, 0]"] ;
449 -> 451 ;
452 [label="gini = 0.0\nsamples = 2\nvalue = [0, 0, 0, 0, 0, 0, 0, 0, 2, 0, 0, 0, 0, 0\n0, 0, 0, 0, 0, 0]"] ;
451 -> 452 ;
453 [label="X[135] <= 3.5\ngini = 0.667\nsamples = 3\nvalue = [0, 1, 0, 0, 0, 0, 0, 1, 0, 0, 0, 0, 1, 0\n0, 0, 0, 0, 0, 0]"] ;
451 -> 453 ;
454 [label="X[171] <= 86.5\ngini = 0.5\nsamples = 2\nvalue = [0, 0, 0, 0, 0, 0, 0, 1, 0, 0, 0, 0, 1, 0\n0, 0, 0, 0, 0, 0]"] ;
453 -> 454 ;
455 [label="gini = 0.0\nsamples = 1\nvalue = [0, 0, 0, 0, 0, 0, 0, 0, 0, 0, 0, 0, 1, 0\n0, 0, 0, 0, 0, 0]"] ;
454 -> 455 ;
456 [label="gini = 0.0\nsamples = 1\nvalue = [0, 0, 0, 0, 0, 0, 0, 1, 0, 0, 0, 0, 0, 0\n0, 0, 0, 0, 0, 0]"] ;
454 -> 456 ;
457 [label="gini = 0.0\nsamples = 1\nvalue = [0, 1, 0, 0, 0, 0, 0, 0, 0, 0, 0, 0, 0, 0\n0, 0, 0, 0, 0, 0]"] ;
453 -> 457 ;
458 [label="X[84] <= 0.5\ngini = 0.923\nsamples = 70\nvalue = [0, 4, 3, 9, 3, 4, 0, 4, 3, 6, 5, 0, 7, 0\n5, 0, 3, 6, 2, 6]"] ;
398 -> 458 ;
459 [label="X[112] <= 0.5\ngini = 0.92\nsamples = 48\nvalue = [0, 4, 2, 0, 2, 3, 0, 4, 3, 5, 4, 0, 5, 0\n5, 0, 3, 4, 1, 3]"] ;
458 -> 459 ;
460 [label="X[99] <= 0.5\ngini = 0.5\nsamples = 6\nvalue = [0, 0, 0, 0, 0, 0, 0, 0, 0, 0, 4, 0, 1, 0\n0, 0, 0, 1, 0, 0]"] ;
459 -> 460 ;
461 [label="gini = 0.0\nsamples = 4\nvalue = [0, 0, 0, 0, 0, 0, 0, 0, 0, 0, 4, 0, 0, 0\n0, 0, 0, 0, 0, 0]"] ;
460 -> 461 ;
462 [label="X[200] <= 0.5\ngini = 0.5\nsamples = 2\nvalue = [0, 0, 0, 0, 0, 0, 0, 0, 0, 0, 0, 0, 1, 0\n0, 0, 0, 1, 0, 0]"] ;
460 -> 462 ;
463 [label="gini = 0.0\nsamples = 1\nvalue = [0, 0, 0, 0, 0, 0, 0, 0, 0, 0, 0, 0, 0, 0\n0, 0, 0, 1, 0, 0]"] ;
462 -> 463 ;
464 [label="gini = 0.0\nsamples = 1\nvalue = [0, 0, 0, 0, 0, 0, 0, 0, 0, 0, 0, 0, 1, 0\n0, 0, 0, 0, 0, 0]"] ;
462 -> 464 ;
465 [label="X[116] <= 1.207\ngini = 0.914\nsamples = 42\nvalue = [0, 4, 2, 0, 2, 3, 0, 4, 3, 5, 0, 0, 4, 0\n5, 0, 3, 3, 1, 3]"] ;
459 -> 465 ;
466 [label="X[196] <= 0.5\ngini = 0.736\nsamples = 12\nvalue = [0, 0, 0, 0, 1, 0, 0, 0, 1, 0, 0, 0, 1, 0\n5, 0, 1, 3, 0, 0]"] ;
465 -> 466 ;
467 [label="X[13] <= 0.5\ngini = 0.278\nsamples = 6\nvalue = [0, 0, 0, 0, 0, 0, 0, 0, 1, 0, 0, 0, 0, 0\n5, 0, 0, 0, 0, 0]"] ;
466 -> 467 ;
468 [label="gini = 0.0\nsamples = 5\nvalue = [0, 0, 0, 0, 0, 0, 0, 0, 0, 0, 0, 0, 0, 0\n5, 0, 0, 0, 0, 0]"] ;
467 -> 468 ;
469 [label="gini = 0.0\nsamples = 1\nvalue = [0, 0, 0, 0, 0, 0, 0, 0, 1, 0, 0, 0, 0, 0\n0, 0, 0, 0, 0, 0]"] ;
467 -> 469 ;
470 [label="X[213] <= 2.495\ngini = 0.667\nsamples = 6\nvalue = [0, 0, 0, 0, 1, 0, 0, 0, 0, 0, 0, 0, 1, 0\n0, 0, 1, 3, 0, 0]"] ;
466 -> 470 ;
471 [label="gini = 0.0\nsamples = 3\nvalue = [0, 0, 0, 0, 0, 0, 0, 0, 0, 0, 0, 0, 0, 0\n0, 0, 0, 3, 0, 0]"] ;
470 -> 471 ;
472 [label="X[38] <= 0.5\ngini = 0.667\nsamples = 3\nvalue = [0, 0, 0, 0, 1, 0, 0, 0, 0, 0, 0, 0, 1, 0\n0, 0, 1, 0, 0, 0]"] ;
470 -> 472 ;
473 [label="X[158] <= 1.407\ngini = 0.5\nsamples = 2\nvalue = [0, 0, 0, 0, 0, 0, 0, 0, 0, 0, 0, 0, 1, 0\n0, 0, 1, 0, 0, 0]"] ;
472 -> 473 ;
474 [label="gini = 0.0\nsamples = 1\nvalue = [0, 0, 0, 0, 0, 0, 0, 0, 0, 0, 0, 0, 0, 0\n0, 0, 1, 0, 0, 0]"] ;
473 -> 474 ;
475 [label="gini = 0.0\nsamples = 1\nvalue = [0, 0, 0, 0, 0, 0, 0, 0, 0, 0, 0, 0, 1, 0\n0, 0, 0, 0, 0, 0]"] ;
473 -> 475 ;
476 [label="gini = 0.0\nsamples = 1\nvalue = [0, 0, 0, 0, 1, 0, 0, 0, 0, 0, 0, 0, 0, 0\n0, 0, 0, 0, 0, 0]"] ;
472 -> 476 ;
477 [label="X[111] <= 3.081\ngini = 0.891\nsamples = 30\nvalue = [0, 4, 2, 0, 1, 3, 0, 4, 2, 5, 0, 0, 3, 0\n0, 0, 2, 0, 1, 3]"] ;
465 -> 477 ;
478 [label="X[203] <= 6.752\ngini = 0.886\nsamples = 27\nvalue = [0, 1, 2, 0, 1, 3, 0, 4, 2, 5, 0, 0, 3, 0\n0, 0, 2, 0, 1, 3]"] ;
477 -> 478 ;
479 [label="X[88] <= 0.5\ngini = 0.892\nsamples = 24\nvalue = [0, 1, 2, 0, 1, 3, 0, 4, 2, 2, 0, 0, 3, 0\n0, 0, 2, 0, 1, 3]"] ;
478 -> 479 ;
480 [label="X[100] <= 0.5\ngini = 0.879\nsamples = 17\nvalue = [0, 1, 2, 0, 1, 3, 0, 0, 1, 1, 0, 0, 2, 0\n0, 0, 2, 0, 1, 3]"] ;
479 -> 480 ;
481 [label="X[148] <= 1.825\ngini = 0.876\nsamples = 13\nvalue = [0, 1, 2, 0, 1, 2, 0, 0, 1, 1, 0, 0, 2, 0\n0, 0, 2, 0, 1, 0]"] ;
480 -> 481 ;
482 [label="X[107] <= 0.707\ngini = 0.812\nsamples = 8\nvalue = [0, 1, 0, 0, 1, 2, 0, 0, 1, 1, 0, 0, 0, 0\n0, 0, 2, 0, 0, 0]"] ;
481 -> 482 ;
483 [label="gini = 0.0\nsamples = 2\nvalue = [0, 0, 0, 0, 0, 2, 0, 0, 0, 0, 0, 0, 0, 0\n0, 0, 0, 0, 0, 0]"] ;
482 -> 483 ;
484 [label="X[221] <= 1.19\ngini = 0.778\nsamples = 6\nvalue = [0, 1, 0, 0, 1, 0, 0, 0, 1, 1, 0, 0, 0, 0\n0, 0, 2, 0, 0, 0]"] ;
482 -> 484 ;
485 [label="gini = 0.0\nsamples = 2\nvalue = [0, 0, 0, 0, 0, 0, 0, 0, 0, 0, 0, 0, 0, 0\n0, 0, 2, 0, 0, 0]"] ;
484 -> 485 ;
486 [label="X[31] <= 0.5\ngini = 0.75\nsamples = 4\nvalue = [0, 1, 0, 0, 1, 0, 0, 0, 1, 1, 0, 0, 0, 0\n0, 0, 0, 0, 0, 0]"] ;
484 -> 486 ;
487 [label="X[136] <= 2.5\ngini = 0.667\nsamples = 3\nvalue = [0, 1, 0, 0, 0, 0, 0, 0, 1, 1, 0, 0, 0, 0\n0, 0, 0, 0, 0, 0]"] ;
486 -> 487 ;
488 [label="gini = 0.0\nsamples = 1\nvalue = [0, 1, 0, 0, 0, 0, 0, 0, 0, 0, 0, 0, 0, 0\n0, 0, 0, 0, 0, 0]"] ;
487 -> 488 ;
489 [label="gini = 0.5\nsamples = 2\nvalue = [0, 0, 0, 0, 0, 0, 0, 0, 1, 1, 0, 0, 0, 0\n0, 0, 0, 0, 0, 0]"] ;
487 -> 489 ;
490 [label="gini = 0.0\nsamples = 1\nvalue = [0, 0, 0, 0, 1, 0, 0, 0, 0, 0, 0, 0, 0, 0\n0, 0, 0, 0, 0, 0]"] ;
486 -> 490 ;
491 [label="X[159] <= -0.161\ngini = 0.64\nsamples = 5\nvalue = [0, 0, 2, 0, 0, 0, 0, 0, 0, 0, 0, 0, 2, 0\n0, 0, 0, 0, 1, 0]"] ;
481 -> 491 ;
492 [label="gini = 0.0\nsamples = 2\nvalue = [0, 0, 0, 0, 0, 0, 0, 0, 0, 0, 0, 0, 2, 0\n0, 0, 0, 0, 0, 0]"] ;
491 -> 492 ;
493 [label="X[112] <= 2.081\ngini = 0.444\nsamples = 3\nvalue = [0, 0, 2, 0, 0, 0, 0, 0, 0, 0, 0, 0, 0, 0\n0, 0, 0, 0, 1, 0]"] ;
491 -> 493 ;
494 [label="gini = 0.0\nsamples = 1\nvalue = [0, 0, 0, 0, 0, 0, 0, 0, 0, 0, 0, 0, 0, 0\n0, 0, 0, 0, 1, 0]"] ;
493 -> 494 ;
495 [label="gini = 0.0\nsamples = 2\nvalue = [0, 0, 2, 0, 0, 0, 0, 0, 0, 0, 0, 0, 0, 0\n0, 0, 0, 0, 0, 0]"] ;
493 -> 495 ;
496 [label="X[40] <= 0.5\ngini = 0.375\nsamples = 4\nvalue = [0, 0, 0, 0, 0, 1, 0, 0, 0, 0, 0, 0, 0, 0\n0, 0, 0, 0, 0, 3]"] ;
480 -> 496 ;
497 [label="gini = 0.0\nsamples = 3\nvalue = [0, 0, 0, 0, 0, 0, 0, 0, 0, 0, 0, 0, 0, 0\n0, 0, 0, 0, 0, 3]"] ;
496 -> 497 ;
498 [label="gini = 0.0\nsamples = 1\nvalue = [0, 0, 0, 0, 0, 1, 0, 0, 0, 0, 0, 0, 0, 0\n0, 0, 0, 0, 0, 0]"] ;
496 -> 498 ;
499 [label="X[93] <= 0.5\ngini = 0.612\nsamples = 7\nvalue = [0, 0, 0, 0, 0, 0, 0, 4, 1, 1, 0, 0, 1, 0\n0, 0, 0, 0, 0, 0]"] ;
479 -> 499 ;
500 [label="gini = 0.0\nsamples = 4\nvalue = [0, 0, 0, 0, 0, 0, 0, 4, 0, 0, 0, 0, 0, 0\n0, 0, 0, 0, 0, 0]"] ;
499 -> 500 ;
501 [label="X[218] <= -3.886\ngini = 0.667\nsamples = 3\nvalue = [0, 0, 0, 0, 0, 0, 0, 0, 1, 1, 0, 0, 1, 0\n0, 0, 0, 0, 0, 0]"] ;
499 -> 501 ;
502 [label="gini = 0.0\nsamples = 1\nvalue = [0, 0, 0, 0, 0, 0, 0, 0, 0, 0, 0, 0, 1, 0\n0, 0, 0, 0, 0, 0]"] ;
501 -> 502 ;
503 [label="X[155] <= 0.723\ngini = 0.5\nsamples = 2\nvalue = [0, 0, 0, 0, 0, 0, 0, 0, 1, 1, 0, 0, 0, 0\n0, 0, 0, 0, 0, 0]"] ;
501 -> 503 ;
504 [label="gini = 0.0\nsamples = 1\nvalue = [0, 0, 0, 0, 0, 0, 0, 0, 0, 1, 0, 0, 0, 0\n0, 0, 0, 0, 0, 0]"] ;
503 -> 504 ;
505 [label="gini = 0.0\nsamples = 1\nvalue = [0, 0, 0, 0, 0, 0, 0, 0, 1, 0, 0, 0, 0, 0\n0, 0, 0, 0, 0, 0]"] ;
503 -> 505 ;
506 [label="gini = 0.0\nsamples = 3\nvalue = [0, 0, 0, 0, 0, 0, 0, 0, 0, 3, 0, 0, 0, 0\n0, 0, 0, 0, 0, 0]"] ;
478 -> 506 ;
507 [label="gini = 0.0\nsamples = 3\nvalue = [0, 3, 0, 0, 0, 0, 0, 0, 0, 0, 0, 0, 0, 0\n0, 0, 0, 0, 0, 0]"] ;
477 -> 507 ;
508 [label="X[185] <= 0.5\ngini = 0.785\nsamples = 22\nvalue = [0, 0, 1, 9, 1, 1, 0, 0, 0, 1, 1, 0, 2, 0\n0, 0, 0, 2, 1, 3]"] ;
458 -> 508 ;
509 [label="X[161] <= 2.504\ngini = 0.497\nsamples = 13\nvalue = [0, 0, 0, 9, 1, 0, 0, 0, 0, 0, 1, 0, 0, 0\n0, 0, 0, 1, 1, 0]"] ;
508 -> 509 ;
510 [label="X[205] <= 2.905\ngini = 0.18\nsamples = 10\nvalue = [0, 0, 0, 9, 1, 0, 0, 0, 0, 0, 0, 0, 0, 0\n0, 0, 0, 0, 0, 0]"] ;
509 -> 510 ;
511 [label="gini = 0.0\nsamples = 9\nvalue = [0, 0, 0, 9, 0, 0, 0, 0, 0, 0, 0, 0, 0, 0\n0, 0, 0, 0, 0, 0]"] ;
510 -> 511 ;
512 [label="gini = 0.0\nsamples = 1\nvalue = [0, 0, 0, 0, 1, 0, 0, 0, 0, 0, 0, 0, 0, 0\n0, 0, 0, 0, 0, 0]"] ;
510 -> 512 ;
513 [label="X[31] <= 0.5\ngini = 0.667\nsamples = 3\nvalue = [0, 0, 0, 0, 0, 0, 0, 0, 0, 0, 1, 0, 0, 0\n0, 0, 0, 1, 1, 0]"] ;
509 -> 513 ;
514 [label="X[203] <= 0.594\ngini = 0.5\nsamples = 2\nvalue = [0, 0, 0, 0, 0, 0, 0, 0, 0, 0, 1, 0, 0, 0\n0, 0, 0, 0, 1, 0]"] ;
513 -> 514 ;
515 [label="gini = 0.0\nsamples = 1\nvalue = [0, 0, 0, 0, 0, 0, 0, 0, 0, 0, 0, 0, 0, 0\n0, 0, 0, 0, 1, 0]"] ;
514 -> 515 ;
516 [label="gini = 0.0\nsamples = 1\nvalue = [0, 0, 0, 0, 0, 0, 0, 0, 0, 0, 1, 0, 0, 0\n0, 0, 0, 0, 0, 0]"] ;
514 -> 516 ;
517 [label="gini = 0.0\nsamples = 1\nvalue = [0, 0, 0, 0, 0, 0, 0, 0, 0, 0, 0, 0, 0, 0\n0, 0, 0, 1, 0, 0]"] ;
513 -> 517 ;
518 [label="X[144] <= -2.798\ngini = 0.79\nsamples = 9\nvalue = [0, 0, 1, 0, 0, 1, 0, 0, 0, 1, 0, 0, 2, 0\n0, 0, 0, 1, 0, 3]"] ;
508 -> 518 ;
519 [label="gini = 0.0\nsamples = 3\nvalue = [0, 0, 0, 0, 0, 0, 0, 0, 0, 0, 0, 0, 0, 0\n0, 0, 0, 0, 0, 3]"] ;
518 -> 519 ;
520 [label="X[156] <= 0.104\ngini = 0.778\nsamples = 6\nvalue = [0, 0, 1, 0, 0, 1, 0, 0, 0, 1, 0, 0, 2, 0\n0, 0, 0, 1, 0, 0]"] ;
518 -> 520 ;
521 [label="X[209] <= -2.098\ngini = 0.75\nsamples = 4\nvalue = [0, 0, 1, 0, 0, 1, 0, 0, 0, 1, 0, 0, 0, 0\n0, 0, 0, 1, 0, 0]"] ;
520 -> 521 ;
522 [label="gini = 0.0\nsamples = 1\nvalue = [0, 0, 0, 0, 0, 1, 0, 0, 0, 0, 0, 0, 0, 0\n0, 0, 0, 0, 0, 0]"] ;
521 -> 522 ;
523 [label="X[152] <= -2.554\ngini = 0.667\nsamples = 3\nvalue = [0, 0, 1, 0, 0, 0, 0, 0, 0, 1, 0, 0, 0, 0\n0, 0, 0, 1, 0, 0]"] ;
521 -> 523 ;
524 [label="gini = 0.0\nsamples = 1\nvalue = [0, 0, 1, 0, 0, 0, 0, 0, 0, 0, 0, 0, 0, 0\n0, 0, 0, 0, 0, 0]"] ;
523 -> 524 ;
525 [label="X[29] <= 0.5\ngini = 0.5\nsamples = 2\nvalue = [0, 0, 0, 0, 0, 0, 0, 0, 0, 1, 0, 0, 0, 0\n0, 0, 0, 1, 0, 0]"] ;
523 -> 525 ;
526 [label="gini = 0.0\nsamples = 1\nvalue = [0, 0, 0, 0, 0, 0, 0, 0, 0, 1, 0, 0, 0, 0\n0, 0, 0, 0, 0, 0]"] ;
525 -> 526 ;
527 [label="gini = 0.0\nsamples = 1\nvalue = [0, 0, 0, 0, 0, 0, 0, 0, 0, 0, 0, 0, 0, 0\n0, 0, 0, 1, 0, 0]"] ;
525 -> 527 ;
528 [label="gini = 0.0\nsamples = 2\nvalue = [0, 0, 0, 0, 0, 0, 0, 0, 0, 0, 0, 0, 2, 0\n0, 0, 0, 0, 0, 0]"] ;
520 -> 528 ;
529 [label="X[193] <= 0.5\ngini = 0.873\nsamples = 215\nvalue = [6, 8, 10, 7, 14, 6, 0, 11, 12, 10, 6, 66, 7\n0, 11, 0, 15, 11, 10, 5]"] ;
3 -> 529 ;
530 [label="X[213] <= 1.651\ngini = 0.577\nsamples = 103\nvalue = [1, 2, 3, 2, 2, 1, 0, 6, 5, 1, 1, 66, 3, 0\n1, 0, 2, 5, 2, 0]"] ;
529 -> 530 ;
531 [label="X[153] <= -0.453\ngini = 0.5\nsamples = 90\nvalue = [1, 0, 1, 1, 2, 1, 0, 5, 5, 1, 0, 63, 2, 0\n1, 0, 2, 4, 1, 0]"] ;
530 -> 531 ;
532 [label="X[118] <= 1.707\ngini = 0.735\nsamples = 37\nvalue = [1, 0, 1, 0, 1, 1, 0, 3, 3, 1, 0, 18, 1, 0\n1, 0, 2, 3, 1, 0]"] ;
531 -> 532 ;
533 [label="X[148] <= -1.176\ngini = 0.867\nsamples = 14\nvalue = [1, 0, 1, 0, 1, 1, 0, 2, 0, 0, 0, 2, 0, 0\n1, 0, 2, 3, 0, 0]"] ;
532 -> 533 ;
534 [label="gini = 0.0\nsamples = 2\nvalue = [0, 0, 0, 0, 0, 0, 0, 0, 0, 0, 0, 0, 0, 0\n0, 0, 2, 0, 0, 0]"] ;
533 -> 534 ;
535 [label="X[215] <= 2.894\ngini = 0.847\nsamples = 12\nvalue = [1, 0, 1, 0, 1, 1, 0, 2, 0, 0, 0, 2, 0, 0\n1, 0, 0, 3, 0, 0]"] ;
533 -> 535 ;
536 [label="X[126] <= 1.5\ngini = 0.812\nsamples = 8\nvalue = [1, 0, 1, 0, 1, 0, 0, 2, 0, 0, 0, 2, 0, 0\n1, 0, 0, 0, 0, 0]"] ;
535 -> 536 ;
537 [label="gini = 0.0\nsamples = 2\nvalue = [0, 0, 0, 0, 0, 0, 0, 2, 0, 0, 0, 0, 0, 0\n0, 0, 0, 0, 0, 0]"] ;
536 -> 537 ;
538 [label="X[103] <= 2.532\ngini = 0.778\nsamples = 6\nvalue = [1, 0, 1, 0, 1, 0, 0, 0, 0, 0, 0, 2, 0, 0\n1, 0, 0, 0, 0, 0]"] ;
536 -> 538 ;
539 [label="X[118] <= 0.707\ngini = 0.75\nsamples = 4\nvalue = [1, 0, 1, 0, 1, 0, 0, 0, 0, 0, 0, 0, 0, 0\n1, 0, 0, 0, 0, 0]"] ;
538 -> 539 ;
540 [label="gini = 0.0\nsamples = 1\nvalue = [0, 0, 0, 0, 0, 0, 0, 0, 0, 0, 0, 0, 0, 0\n1, 0, 0, 0, 0, 0]"] ;
539 -> 540 ;
541 [label="X[36] <= 0.5\ngini = 0.667\nsamples = 3\nvalue = [1, 0, 1, 0, 1, 0, 0, 0, 0, 0, 0, 0, 0, 0\n0, 0, 0, 0, 0, 0]"] ;
539 -> 541 ;
542 [label="X[187] <= 0.5\ngini = 0.5\nsamples = 2\nvalue = [0, 0, 1, 0, 1, 0, 0, 0, 0, 0, 0, 0, 0, 0\n0, 0, 0, 0, 0, 0]"] ;
541 -> 542 ;
543 [label="gini = 0.0\nsamples = 1\nvalue = [0, 0, 0, 0, 1, 0, 0, 0, 0, 0, 0, 0, 0, 0\n0, 0, 0, 0, 0, 0]"] ;
542 -> 543 ;
544 [label="gini = 0.0\nsamples = 1\nvalue = [0, 0, 1, 0, 0, 0, 0, 0, 0, 0, 0, 0, 0, 0\n0, 0, 0, 0, 0, 0]"] ;
542 -> 544 ;
545 [label="gini = 0.0\nsamples = 1\nvalue = [1, 0, 0, 0, 0, 0, 0, 0, 0, 0, 0, 0, 0, 0\n0, 0, 0, 0, 0, 0]"] ;
541 -> 545 ;
546 [label="gini = 0.0\nsamples = 2\nvalue = [0, 0, 0, 0, 0, 0, 0, 0, 0, 0, 0, 2, 0, 0\n0, 0, 0, 0, 0, 0]"] ;
538 -> 546 ;
547 [label="X[171] <= 145.5\ngini = 0.375\nsamples = 4\nvalue = [0, 0, 0, 0, 0, 1, 0, 0, 0, 0, 0, 0, 0, 0\n0, 0, 0, 3, 0, 0]"] ;
535 -> 547 ;
548 [label="gini = 0.0\nsamples = 1\nvalue = [0, 0, 0, 0, 0, 1, 0, 0, 0, 0, 0, 0, 0, 0\n0, 0, 0, 0, 0, 0]"] ;
547 -> 548 ;
549 [label="gini = 0.0\nsamples = 3\nvalue = [0, 0, 0, 0, 0, 0, 0, 0, 0, 0, 0, 0, 0, 0\n0, 0, 0, 3, 0, 0]"] ;
547 -> 549 ;
550 [label="X[202] <= 7.338\ngini = 0.491\nsamples = 23\nvalue = [0, 0, 0, 0, 0, 0, 0, 1, 3, 1, 0, 16, 1, 0\n0, 0, 0, 0, 1, 0]"] ;
532 -> 550 ;
551 [label="X[90] <= 0.5\ngini = 0.345\nsamples = 20\nvalue = [0, 0, 0, 0, 0, 0, 0, 1, 2, 0, 0, 16, 0, 0\n0, 0, 0, 0, 1, 0]"] ;
550 -> 551 ;
552 [label="gini = 0.0\nsamples = 14\nvalue = [0, 0, 0, 0, 0, 0, 0, 0, 0, 0, 0, 14, 0, 0\n0, 0, 0, 0, 0, 0]"] ;
551 -> 552 ;
553 [label="X[210] <= 0.013\ngini = 0.722\nsamples = 6\nvalue = [0, 0, 0, 0, 0, 0, 0, 1, 2, 0, 0, 2, 0, 0\n0, 0, 0, 0, 1, 0]"] ;
551 -> 553 ;
554 [label="X[109] <= 1.707\ngini = 0.625\nsamples = 4\nvalue = [0, 0, 0, 0, 0, 0, 0, 1, 0, 0, 0, 2, 0, 0\n0, 0, 0, 0, 1, 0]"] ;
553 -> 554 ;
555 [label="X[71] <= 0.5\ngini = 0.5\nsamples = 2\nvalue = [0, 0, 0, 0, 0, 0, 0, 1, 0, 0, 0, 0, 0, 0\n0, 0, 0, 0, 1, 0]"] ;
554 -> 555 ;
556 [label="gini = 0.0\nsamples = 1\nvalue = [0, 0, 0, 0, 0, 0, 0, 1, 0, 0, 0, 0, 0, 0\n0, 0, 0, 0, 0, 0]"] ;
555 -> 556 ;
557 [label="gini = 0.0\nsamples = 1\nvalue = [0, 0, 0, 0, 0, 0, 0, 0, 0, 0, 0, 0, 0, 0\n0, 0, 0, 0, 1, 0]"] ;
555 -> 557 ;
558 [label="gini = 0.0\nsamples = 2\nvalue = [0, 0, 0, 0, 0, 0, 0, 0, 0, 0, 0, 2, 0, 0\n0, 0, 0, 0, 0, 0]"] ;
554 -> 558 ;
559 [label="gini = 0.0\nsamples = 2\nvalue = [0, 0, 0, 0, 0, 0, 0, 0, 2, 0, 0, 0, 0, 0\n0, 0, 0, 0, 0, 0]"] ;
553 -> 559 ;
560 [label="X[141] <= 3.0\ngini = 0.667\nsamples = 3\nvalue = [0, 0, 0, 0, 0, 0, 0, 0, 1, 1, 0, 0, 1, 0\n0, 0, 0, 0, 0, 0]"] ;
550 -> 560 ;
561 [label="X[107] <= 1.707\ngini = 0.5\nsamples = 2\nvalue = [0, 0, 0, 0, 0, 0, 0, 0, 1, 0, 0, 0, 1, 0\n0, 0, 0, 0, 0, 0]"] ;
560 -> 561 ;
562 [label="gini = 0.0\nsamples = 1\nvalue = [0, 0, 0, 0, 0, 0, 0, 0, 1, 0, 0, 0, 0, 0\n0, 0, 0, 0, 0, 0]"] ;
561 -> 562 ;
563 [label="gini = 0.0\nsamples = 1\nvalue = [0, 0, 0, 0, 0, 0, 0, 0, 0, 0, 0, 0, 1, 0\n0, 0, 0, 0, 0, 0]"] ;
561 -> 563 ;
564 [label="gini = 0.0\nsamples = 1\nvalue = [0, 0, 0, 0, 0, 0, 0, 0, 0, 1, 0, 0, 0, 0\n0, 0, 0, 0, 0, 0]"] ;
560 -> 564 ;
565 [label="X[102] <= 3.924\ngini = 0.275\nsamples = 53\nvalue = [0, 0, 0, 1, 1, 0, 0, 2, 2, 0, 0, 45, 1, 0\n0, 0, 0, 1, 0, 0]"] ;
531 -> 565 ;
566 [label="X[219] <= -5.407\ngini = 0.247\nsamples = 52\nvalue = [0, 0, 0, 1, 1, 0, 0, 2, 2, 0, 0, 45, 1, 0\n0, 0, 0, 0, 0, 0]"] ;
565 -> 566 ;
567 [label="gini = 0.0\nsamples = 1\nvalue = [0, 0, 0, 0, 0, 0, 0, 0, 1, 0, 0, 0, 0, 0\n0, 0, 0, 0, 0, 0]"] ;
566 -> 567 ;
568 [label="X[174] <= 13.5\ngini = 0.218\nsamples = 51\nvalue = [0, 0, 0, 1, 1, 0, 0, 2, 1, 0, 0, 45, 1, 0\n0, 0, 0, 0, 0, 0]"] ;
566 -> 568 ;
569 [label="gini = 0.0\nsamples = 1\nvalue = [0, 0, 0, 0, 0, 0, 0, 0, 1, 0, 0, 0, 0, 0\n0, 0, 0, 0, 0, 0]"] ;
568 -> 569 ;
570 [label="X[18] <= 0.5\ngini = 0.187\nsamples = 50\nvalue = [0, 0, 0, 1, 1, 0, 0, 2, 0, 0, 0, 45, 1, 0\n0, 0, 0, 0, 0, 0]"] ;
568 -> 570 ;
571 [label="X[125] <= 3.5\ngini = 0.127\nsamples = 45\nvalue = [0, 0, 0, 1, 1, 0, 0, 0, 0, 0, 0, 42, 1, 0\n0, 0, 0, 0, 0, 0]"] ;
570 -> 571 ;
572 [label="X[102] <= 3.384\ngini = 0.049\nsamples = 40\nvalue = [0, 0, 0, 0, 0, 0, 0, 0, 0, 0, 0, 39, 1, 0\n0, 0, 0, 0, 0, 0]"] ;
571 -> 572 ;
573 [label="gini = 0.0\nsamples = 38\nvalue = [0, 0, 0, 0, 0, 0, 0, 0, 0, 0, 0, 38, 0, 0\n0, 0, 0, 0, 0, 0]"] ;
572 -> 573 ;
574 [label="X[160] <= 1.749\ngini = 0.5\nsamples = 2\nvalue = [0, 0, 0, 0, 0, 0, 0, 0, 0, 0, 0, 1, 1, 0\n0, 0, 0, 0, 0, 0]"] ;
572 -> 574 ;
575 [label="gini = 0.0\nsamples = 1\nvalue = [0, 0, 0, 0, 0, 0, 0, 0, 0, 0, 0, 0, 1, 0\n0, 0, 0, 0, 0, 0]"] ;
574 -> 575 ;
576 [label="gini = 0.0\nsamples = 1\nvalue = [0, 0, 0, 0, 0, 0, 0, 0, 0, 0, 0, 1, 0, 0\n0, 0, 0, 0, 0, 0]"] ;
574 -> 576 ;
577 [label="X[215] <= -2.221\ngini = 0.56\nsamples = 5\nvalue = [0, 0, 0, 1, 1, 0, 0, 0, 0, 0, 0, 3, 0, 0\n0, 0, 0, 0, 0, 0]"] ;
571 -> 577 ;
578 [label="gini = 0.0\nsamples = 1\nvalue = [0, 0, 0, 0, 1, 0, 0, 0, 0, 0, 0, 0, 0, 0\n0, 0, 0, 0, 0, 0]"] ;
577 -> 578 ;
579 [label="X[144] <= 2.572\ngini = 0.375\nsamples = 4\nvalue = [0, 0, 0, 1, 0, 0, 0, 0, 0, 0, 0, 3, 0, 0\n0, 0, 0, 0, 0, 0]"] ;
577 -> 579 ;
580 [label="gini = 0.0\nsamples = 2\nvalue = [0, 0, 0, 0, 0, 0, 0, 0, 0, 0, 0, 2, 0, 0\n0, 0, 0, 0, 0, 0]"] ;
579 -> 580 ;
581 [label="X[28] <= 0.5\ngini = 0.5\nsamples = 2\nvalue = [0, 0, 0, 1, 0, 0, 0, 0, 0, 0, 0, 1, 0, 0\n0, 0, 0, 0, 0, 0]"] ;
579 -> 581 ;
582 [label="gini = 0.0\nsamples = 1\nvalue = [0, 0, 0, 1, 0, 0, 0, 0, 0, 0, 0, 0, 0, 0\n0, 0, 0, 0, 0, 0]"] ;
581 -> 582 ;
583 [label="gini = 0.0\nsamples = 1\nvalue = [0, 0, 0, 0, 0, 0, 0, 0, 0, 0, 0, 1, 0, 0\n0, 0, 0, 0, 0, 0]"] ;
581 -> 583 ;
584 [label="X[111] <= 1.618\ngini = 0.48\nsamples = 5\nvalue = [0, 0, 0, 0, 0, 0, 0, 2, 0, 0, 0, 3, 0, 0\n0, 0, 0, 0, 0, 0]"] ;
570 -> 584 ;
585 [label="gini = 0.0\nsamples = 3\nvalue = [0, 0, 0, 0, 0, 0, 0, 0, 0, 0, 0, 3, 0, 0\n0, 0, 0, 0, 0, 0]"] ;
584 -> 585 ;
586 [label="gini = 0.0\nsamples = 2\nvalue = [0, 0, 0, 0, 0, 0, 0, 2, 0, 0, 0, 0, 0, 0\n0, 0, 0, 0, 0, 0]"] ;
584 -> 586 ;
587 [label="gini = 0.0\nsamples = 1\nvalue = [0, 0, 0, 0, 0, 0, 0, 0, 0, 0, 0, 0, 0, 0\n0, 0, 0, 1, 0, 0]"] ;
565 -> 587 ;
588 [label="X[9] <= 0.5\ngini = 0.864\nsamples = 13\nvalue = [0, 2, 2, 1, 0, 0, 0, 1, 0, 0, 1, 3, 1, 0\n0, 0, 0, 1, 1, 0]"] ;
530 -> 588 ;
589 [label="X[164] <= 146.0\ngini = 0.843\nsamples = 11\nvalue = [0, 0, 2, 1, 0, 0, 0, 1, 0, 0, 1, 3, 1, 0\n0, 0, 0, 1, 1, 0]"] ;
588 -> 589 ;
590 [label="gini = 0.0\nsamples = 2\nvalue = [0, 0, 2, 0, 0, 0, 0, 0, 0, 0, 0, 0, 0, 0\n0, 0, 0, 0, 0, 0]"] ;
589 -> 590 ;
591 [label="X[0] <= 23.0\ngini = 0.815\nsamples = 9\nvalue = [0, 0, 0, 1, 0, 0, 0, 1, 0, 0, 1, 3, 1, 0\n0, 0, 0, 1, 1, 0]"] ;
589 -> 591 ;
592 [label="X[126] <= 1.5\ngini = 0.833\nsamples = 6\nvalue = [0, 0, 0, 1, 0, 0, 0, 1, 0, 0, 1, 0, 1, 0\n0, 0, 0, 1, 1, 0]"] ;
591 -> 592 ;
593 [label="gini = 0.0\nsamples = 1\nvalue = [0, 0, 0, 0, 0, 0, 0, 1, 0, 0, 0, 0, 0, 0\n0, 0, 0, 0, 0, 0]"] ;
592 -> 593 ;
594 [label="X[220] <= 1.72\ngini = 0.8\nsamples = 5\nvalue = [0, 0, 0, 1, 0, 0, 0, 0, 0, 0, 1, 0, 1, 0\n0, 0, 0, 1, 1, 0]"] ;
592 -> 594 ;
595 [label="gini = 0.0\nsamples = 1\nvalue = [0, 0, 0, 1, 0, 0, 0, 0, 0, 0, 0, 0, 0, 0\n0, 0, 0, 0, 0, 0]"] ;
594 -> 595 ;
596 [label="X[151] <= 1.751\ngini = 0.75\nsamples = 4\nvalue = [0, 0, 0, 0, 0, 0, 0, 0, 0, 0, 1, 0, 1, 0\n0, 0, 0, 1, 1, 0]"] ;
594 -> 596 ;
597 [label="gini = 0.0\nsamples = 1\nvalue = [0, 0, 0, 0, 0, 0, 0, 0, 0, 0, 1, 0, 0, 0\n0, 0, 0, 0, 0, 0]"] ;
596 -> 597 ;
598 [label="X[129] <= 1.5\ngini = 0.667\nsamples = 3\nvalue = [0, 0, 0, 0, 0, 0, 0, 0, 0, 0, 0, 0, 1, 0\n0, 0, 0, 1, 1, 0]"] ;
596 -> 598 ;
599 [label="X[109] <= 1.207\ngini = 0.5\nsamples = 2\nvalue = [0, 0, 0, 0, 0, 0, 0, 0, 0, 0, 0, 0, 0, 0\n0, 0, 0, 1, 1, 0]"] ;
598 -> 599 ;
600 [label="gini = 0.0\nsamples = 1\nvalue = [0, 0, 0, 0, 0, 0, 0, 0, 0, 0, 0, 0, 0, 0\n0, 0, 0, 1, 0, 0]"] ;
599 -> 600 ;
601 [label="gini = 0.0\nsamples = 1\nvalue = [0, 0, 0, 0, 0, 0, 0, 0, 0, 0, 0, 0, 0, 0\n0, 0, 0, 0, 1, 0]"] ;
599 -> 601 ;
602 [label="gini = 0.0\nsamples = 1\nvalue = [0, 0, 0, 0, 0, 0, 0, 0, 0, 0, 0, 0, 1, 0\n0, 0, 0, 0, 0, 0]"] ;
598 -> 602 ;
603 [label="gini = 0.0\nsamples = 3\nvalue = [0, 0, 0, 0, 0, 0, 0, 0, 0, 0, 0, 3, 0, 0\n0, 0, 0, 0, 0, 0]"] ;
591 -> 603 ;
604 [label="gini = 0.0\nsamples = 2\nvalue = [0, 2, 0, 0, 0, 0, 0, 0, 0, 0, 0, 0, 0, 0\n0, 0, 0, 0, 0, 0]"] ;
588 -> 604 ;
605 [label="X[95] <= 0.5\ngini = 0.929\nsamples = 112\nvalue = [5, 6, 7, 5, 12, 5, 0, 5, 7, 9, 5, 0, 4, 0\n10, 0, 13, 6, 8, 5]"] ;
529 -> 605 ;
606 [label="X[85] <= 0.5\ngini = 0.919\nsamples = 77\nvalue = [2, 4, 6, 3, 12, 3, 0, 3, 6, 8, 5, 0, 4, 0\n0, 0, 7, 4, 5, 5]"] ;
605 -> 606 ;
607 [label="X[90] <= 0.5\ngini = 0.913\nsamples = 50\nvalue = [2, 3, 5, 2, 0, 3, 0, 1, 6, 7, 5, 0, 2, 0\n0, 0, 5, 3, 3, 3]"] ;
606 -> 607 ;
608 [label="X[83] <= 0.5\ngini = 0.91\nsamples = 40\nvalue = [2, 3, 5, 2, 0, 3, 0, 1, 5, 0, 4, 0, 2, 0\n0, 0, 5, 2, 3, 3]"] ;
607 -> 608 ;
609 [label="X[86] <= 0.5\ngini = 0.902\nsamples = 33\nvalue = [2, 3, 0, 1, 0, 3, 0, 1, 5, 0, 4, 0, 2, 0\n0, 0, 4, 2, 3, 3]"] ;
608 -> 609 ;
610 [label="X[118] <= 0.5\ngini = 0.891\nsamples = 30\nvalue = [2, 3, 0, 1, 0, 0, 0, 1, 5, 0, 4, 0, 2, 0\n0, 0, 4, 2, 3, 3]"] ;
609 -> 610 ;
611 [label="X[158] <= 0.071\ngini = 0.5\nsamples = 6\nvalue = [0, 0, 0, 0, 0, 0, 0, 0, 0, 0, 0, 0, 0, 0\n0, 0, 4, 0, 1, 1]"] ;
610 -> 611 ;
612 [label="gini = 0.0\nsamples = 4\nvalue = [0, 0, 0, 0, 0, 0, 0, 0, 0, 0, 0, 0, 0, 0\n0, 0, 4, 0, 0, 0]"] ;
611 -> 612 ;
613 [label="X[110] <= 0.707\ngini = 0.5\nsamples = 2\nvalue = [0, 0, 0, 0, 0, 0, 0, 0, 0, 0, 0, 0, 0, 0\n0, 0, 0, 0, 1, 1]"] ;
611 -> 613 ;
614 [label="gini = 0.0\nsamples = 1\nvalue = [0, 0, 0, 0, 0, 0, 0, 0, 0, 0, 0, 0, 0, 0\n0, 0, 0, 0, 0, 1]"] ;
613 -> 614 ;
615 [label="gini = 0.0\nsamples = 1\nvalue = [0, 0, 0, 0, 0, 0, 0, 0, 0, 0, 0, 0, 0, 0\n0, 0, 0, 0, 1, 0]"] ;
613 -> 615 ;
616 [label="X[110] <= 0.5\ngini = 0.875\nsamples = 24\nvalue = [2, 3, 0, 1, 0, 0, 0, 1, 5, 0, 4, 0, 2, 0\n0, 0, 0, 2, 2, 2]"] ;
610 -> 616 ;
617 [label="X[146] <= 2.423\ngini = 0.449\nsamples = 7\nvalue = [0, 0, 0, 0, 0, 0, 0, 0, 5, 0, 1, 0, 0, 0\n0, 0, 0, 0, 1, 0]"] ;
616 -> 617 ;
618 [label="gini = 0.0\nsamples = 5\nvalue = [0, 0, 0, 0, 0, 0, 0, 0, 5, 0, 0, 0, 0, 0\n0, 0, 0, 0, 0, 0]"] ;
617 -> 618 ;
619 [label="X[154] <= -0.001\ngini = 0.5\nsamples = 2\nvalue = [0, 0, 0, 0, 0, 0, 0, 0, 0, 0, 1, 0, 0, 0\n0, 0, 0, 0, 1, 0]"] ;
617 -> 619 ;
620 [label="gini = 0.0\nsamples = 1\nvalue = [0, 0, 0, 0, 0, 0, 0, 0, 0, 0, 1, 0, 0, 0\n0, 0, 0, 0, 0, 0]"] ;
619 -> 620 ;
621 [label="gini = 0.0\nsamples = 1\nvalue = [0, 0, 0, 0, 0, 0, 0, 0, 0, 0, 0, 0, 0, 0\n0, 0, 0, 0, 1, 0]"] ;
619 -> 621 ;
622 [label="X[215] <= -3.638\ngini = 0.872\nsamples = 17\nvalue = [2, 3, 0, 1, 0, 0, 0, 1, 0, 0, 3, 0, 2, 0\n0, 0, 0, 2, 1, 2]"] ;
616 -> 622 ;
623 [label="X[115] <= 3.081\ngini = 0.611\nsamples = 6\nvalue = [0, 3, 0, 0, 0, 0, 0, 1, 0, 0, 0, 0, 0, 0\n0, 0, 0, 0, 0, 2]"] ;
622 -> 623 ;
624 [label="gini = 0.0\nsamples = 3\nvalue = [0, 3, 0, 0, 0, 0, 0, 0, 0, 0, 0, 0, 0, 0\n0, 0, 0, 0, 0, 0]"] ;
623 -> 624 ;
625 [label="X[135] <= 1.5\ngini = 0.444\nsamples = 3\nvalue = [0, 0, 0, 0, 0, 0, 0, 1, 0, 0, 0, 0, 0, 0\n0, 0, 0, 0, 0, 2]"] ;
623 -> 625 ;
626 [label="gini = 0.0\nsamples = 1\nvalue = [0, 0, 0, 0, 0, 0, 0, 1, 0, 0, 0, 0, 0, 0\n0, 0, 0, 0, 0, 0]"] ;
625 -> 626 ;
627 [label="gini = 0.0\nsamples = 2\nvalue = [0, 0, 0, 0, 0, 0, 0, 0, 0, 0, 0, 0, 0, 0\n0, 0, 0, 0, 0, 2]"] ;
625 -> 627 ;
628 [label="X[200] <= 0.5\ngini = 0.81\nsamples = 11\nvalue = [2, 0, 0, 1, 0, 0, 0, 0, 0, 0, 3, 0, 2, 0\n0, 0, 0, 2, 1, 0]"] ;
622 -> 628 ;
629 [label="X[153] <= -0.521\ngini = 0.781\nsamples = 8\nvalue = [2, 0, 0, 1, 0, 0, 0, 0, 0, 0, 0, 0, 2, 0\n0, 0, 0, 2, 1, 0]"] ;
628 -> 629 ;
630 [label="gini = 0.0\nsamples = 2\nvalue = [2, 0, 0, 0, 0, 0, 0, 0, 0, 0, 0, 0, 0, 0\n0, 0, 0, 0, 0, 0]"] ;
629 -> 630 ;
631 [label="X[188] <= 0.5\ngini = 0.722\nsamples = 6\nvalue = [0, 0, 0, 1, 0, 0, 0, 0, 0, 0, 0, 0, 2, 0\n0, 0, 0, 2, 1, 0]"] ;
629 -> 631 ;
632 [label="X[46] <= 0.5\ngini = 0.625\nsamples = 4\nvalue = [0, 0, 0, 1, 0, 0, 0, 0, 0, 0, 0, 0, 0, 0\n0, 0, 0, 2, 1, 0]"] ;
631 -> 632 ;
633 [label="X[150] <= -0.034\ngini = 0.5\nsamples = 2\nvalue = [0, 0, 0, 1, 0, 0, 0, 0, 0, 0, 0, 0, 0, 0\n0, 0, 0, 0, 1, 0]"] ;
632 -> 633 ;
634 [label="gini = 0.0\nsamples = 1\nvalue = [0, 0, 0, 1, 0, 0, 0, 0, 0, 0, 0, 0, 0, 0\n0, 0, 0, 0, 0, 0]"] ;
633 -> 634 ;
635 [label="gini = 0.0\nsamples = 1\nvalue = [0, 0, 0, 0, 0, 0, 0, 0, 0, 0, 0, 0, 0, 0\n0, 0, 0, 0, 1, 0]"] ;
633 -> 635 ;
636 [label="gini = 0.0\nsamples = 2\nvalue = [0, 0, 0, 0, 0, 0, 0, 0, 0, 0, 0, 0, 0, 0\n0, 0, 0, 2, 0, 0]"] ;
632 -> 636 ;
637 [label="gini = 0.0\nsamples = 2\nvalue = [0, 0, 0, 0, 0, 0, 0, 0, 0, 0, 0, 0, 2, 0\n0, 0, 0, 0, 0, 0]"] ;
631 -> 637 ;
638 [label="gini = 0.0\nsamples = 3\nvalue = [0, 0, 0, 0, 0, 0, 0, 0, 0, 0, 3, 0, 0, 0\n0, 0, 0, 0, 0, 0]"] ;
628 -> 638 ;
639 [label="gini = 0.0\nsamples = 3\nvalue = [0, 0, 0, 0, 0, 3, 0, 0, 0, 0, 0, 0, 0, 0\n0, 0, 0, 0, 0, 0]"] ;
609 -> 639 ;
640 [label="X[203] <= 1.98\ngini = 0.449\nsamples = 7\nvalue = [0, 0, 5, 1, 0, 0, 0, 0, 0, 0, 0, 0, 0, 0\n0, 0, 1, 0, 0, 0]"] ;
608 -> 640 ;
641 [label="gini = 0.0\nsamples = 5\nvalue = [0, 0, 5, 0, 0, 0, 0, 0, 0, 0, 0, 0, 0, 0\n0, 0, 0, 0, 0, 0]"] ;
640 -> 641 ;
642 [label="X[153] <= 0.442\ngini = 0.5\nsamples = 2\nvalue = [0, 0, 0, 1, 0, 0, 0, 0, 0, 0, 0, 0, 0, 0\n0, 0, 1, 0, 0, 0]"] ;
640 -> 642 ;
643 [label="gini = 0.0\nsamples = 1\nvalue = [0, 0, 0, 0, 0, 0, 0, 0, 0, 0, 0, 0, 0, 0\n0, 0, 1, 0, 0, 0]"] ;
642 -> 643 ;
644 [label="gini = 0.0\nsamples = 1\nvalue = [0, 0, 0, 1, 0, 0, 0, 0, 0, 0, 0, 0, 0, 0\n0, 0, 0, 0, 0, 0]"] ;
642 -> 644 ;
645 [label="X[176] <= 125.5\ngini = 0.48\nsamples = 10\nvalue = [0, 0, 0, 0, 0, 0, 0, 0, 1, 7, 1, 0, 0, 0\n0, 0, 0, 1, 0, 0]"] ;
607 -> 645 ;
646 [label="X[48] <= 0.5\ngini = 0.667\nsamples = 3\nvalue = [0, 0, 0, 0, 0, 0, 0, 0, 1, 0, 1, 0, 0, 0\n0, 0, 0, 1, 0, 0]"] ;
645 -> 646 ;
647 [label="gini = 0.0\nsamples = 1\nvalue = [0, 0, 0, 0, 0, 0, 0, 0, 0, 0, 1, 0, 0, 0\n0, 0, 0, 0, 0, 0]"] ;
646 -> 647 ;
648 [label="X[207] <= -3.84\ngini = 0.5\nsamples = 2\nvalue = [0, 0, 0, 0, 0, 0, 0, 0, 1, 0, 0, 0, 0, 0\n0, 0, 0, 1, 0, 0]"] ;
646 -> 648 ;
649 [label="gini = 0.0\nsamples = 1\nvalue = [0, 0, 0, 0, 0, 0, 0, 0, 0, 0, 0, 0, 0, 0\n0, 0, 0, 1, 0, 0]"] ;
648 -> 649 ;
650 [label="gini = 0.0\nsamples = 1\nvalue = [0, 0, 0, 0, 0, 0, 0, 0, 1, 0, 0, 0, 0, 0\n0, 0, 0, 0, 0, 0]"] ;
648 -> 650 ;
651 [label="gini = 0.0\nsamples = 7\nvalue = [0, 0, 0, 0, 0, 0, 0, 0, 0, 7, 0, 0, 0, 0\n0, 0, 0, 0, 0, 0]"] ;
645 -> 651 ;
652 [label="X[186] <= 0.5\ngini = 0.768\nsamples = 27\nvalue = [0, 1, 1, 1, 12, 0, 0, 2, 0, 1, 0, 0, 2, 0\n0, 0, 2, 1, 2, 2]"] ;
606 -> 652 ;
653 [label="X[100] <= 0.5\ngini = 0.414\nsamples = 16\nvalue = [0, 0, 0, 0, 12, 0, 0, 1, 0, 1, 0, 0, 0, 0\n0, 0, 0, 0, 0, 2]"] ;
652 -> 653 ;
654 [label="X[203] <= -5.068\ngini = 0.153\nsamples = 12\nvalue = [0, 0, 0, 0, 11, 0, 0, 1, 0, 0, 0, 0, 0, 0\n0, 0, 0, 0, 0, 0]"] ;
653 -> 654 ;
655 [label="gini = 0.0\nsamples = 1\nvalue = [0, 0, 0, 0, 0, 0, 0, 1, 0, 0, 0, 0, 0, 0\n0, 0, 0, 0, 0, 0]"] ;
654 -> 655 ;
656 [label="gini = 0.0\nsamples = 11\nvalue = [0, 0, 0, 0, 11, 0, 0, 0, 0, 0, 0, 0, 0, 0\n0, 0, 0, 0, 0, 0]"] ;
654 -> 656 ;
657 [label="X[149] <= 0.856\ngini = 0.625\nsamples = 4\nvalue = [0, 0, 0, 0, 1, 0, 0, 0, 0, 1, 0, 0, 0, 0\n0, 0, 0, 0, 0, 2]"] ;
653 -> 657 ;
658 [label="X[71] <= 0.5\ngini = 0.5\nsamples = 2\nvalue = [0, 0, 0, 0, 1, 0, 0, 0, 0, 1, 0, 0, 0, 0\n0, 0, 0, 0, 0, 0]"] ;
657 -> 658 ;
659 [label="gini = 0.0\nsamples = 1\nvalue = [0, 0, 0, 0, 0, 0, 0, 0, 0, 1, 0, 0, 0, 0\n0, 0, 0, 0, 0, 0]"] ;
658 -> 659 ;
660 [label="gini = 0.0\nsamples = 1\nvalue = [0, 0, 0, 0, 1, 0, 0, 0, 0, 0, 0, 0, 0, 0\n0, 0, 0, 0, 0, 0]"] ;
658 -> 660 ;
661 [label="gini = 0.0\nsamples = 2\nvalue = [0, 0, 0, 0, 0, 0, 0, 0, 0, 0, 0, 0, 0, 0\n0, 0, 0, 0, 0, 2]"] ;
657 -> 661 ;
662 [label="X[146] <= 1.962\ngini = 0.86\nsamples = 11\nvalue = [0, 1, 1, 1, 0, 0, 0, 1, 0, 0, 0, 0, 2, 0\n0, 0, 2, 1, 2, 0]"] ;
652 -> 662 ;
663 [label="X[124] <= 1.5\ngini = 0.84\nsamples = 9\nvalue = [0, 1, 1, 1, 0, 0, 0, 1, 0, 0, 0, 0, 2, 0\n0, 0, 2, 1, 0, 0]"] ;
662 -> 663 ;
664 [label="gini = 0.0\nsamples = 2\nvalue = [0, 0, 0, 0, 0, 0, 0, 0, 0, 0, 0, 0, 0, 0\n0, 0, 2, 0, 0, 0]"] ;
663 -> 664 ;
665 [label="X[216] <= 2.096\ngini = 0.816\nsamples = 7\nvalue = [0, 1, 1, 1, 0, 0, 0, 1, 0, 0, 0, 0, 2, 0\n0, 0, 0, 1, 0, 0]"] ;
663 -> 665 ;
666 [label="X[114] <= 1.5\ngini = 0.8\nsamples = 5\nvalue = [0, 1, 1, 1, 0, 0, 0, 1, 0, 0, 0, 0, 0, 0\n0, 0, 0, 1, 0, 0]"] ;
665 -> 666 ;
667 [label="gini = 0.0\nsamples = 1\nvalue = [0, 0, 0, 1, 0, 0, 0, 0, 0, 0, 0, 0, 0, 0\n0, 0, 0, 0, 0, 0]"] ;
666 -> 667 ;
668 [label="X[38] <= 0.5\ngini = 0.75\nsamples = 4\nvalue = [0, 1, 1, 0, 0, 0, 0, 1, 0, 0, 0, 0, 0, 0\n0, 0, 0, 1, 0, 0]"] ;
666 -> 668 ;
669 [label="X[143] <= -0.554\ngini = 0.5\nsamples = 2\nvalue = [0, 0, 1, 0, 0, 0, 0, 0, 0, 0, 0, 0, 0, 0\n0, 0, 0, 1, 0, 0]"] ;
668 -> 669 ;
670 [label="gini = 0.0\nsamples = 1\nvalue = [0, 0, 1, 0, 0, 0, 0, 0, 0, 0, 0, 0, 0, 0\n0, 0, 0, 0, 0, 0]"] ;
669 -> 670 ;
671 [label="gini = 0.0\nsamples = 1\nvalue = [0, 0, 0, 0, 0, 0, 0, 0, 0, 0, 0, 0, 0, 0\n0, 0, 0, 1, 0, 0]"] ;
669 -> 671 ;
672 [label="X[160] <= -0.785\ngini = 0.5\nsamples = 2\nvalue = [0, 1, 0, 0, 0, 0, 0, 1, 0, 0, 0, 0, 0, 0\n0, 0, 0, 0, 0, 0]"] ;
668 -> 672 ;
673 [label="gini = 0.0\nsamples = 1\nvalue = [0, 1, 0, 0, 0, 0, 0, 0, 0, 0, 0, 0, 0, 0\n0, 0, 0, 0, 0, 0]"] ;
672 -> 673 ;
674 [label="gini = 0.0\nsamples = 1\nvalue = [0, 0, 0, 0, 0, 0, 0, 1, 0, 0, 0, 0, 0, 0\n0, 0, 0, 0, 0, 0]"] ;
672 -> 674 ;
675 [label="gini = 0.0\nsamples = 2\nvalue = [0, 0, 0, 0, 0, 0, 0, 0, 0, 0, 0, 0, 2, 0\n0, 0, 0, 0, 0, 0]"] ;
665 -> 675 ;
676 [label="gini = 0.0\nsamples = 2\nvalue = [0, 0, 0, 0, 0, 0, 0, 0, 0, 0, 0, 0, 0, 0\n0, 0, 0, 0, 2, 0]"] ;
662 -> 676 ;
677 [label="X[196] <= 0.5\ngini = 0.856\nsamples = 35\nvalue = [3, 2, 1, 2, 0, 2, 0, 2, 1, 1, 0, 0, 0, 0\n10, 0, 6, 2, 3, 0]"] ;
605 -> 677 ;
678 [label="X[3] <= 0.5\ngini = 0.66\nsamples = 18\nvalue = [0, 2, 0, 1, 0, 0, 0, 1, 1, 1, 0, 0, 0, 0\n10, 0, 1, 0, 1, 0]"] ;
677 -> 678 ;
679 [label="X[153] <= -2.649\ngini = 0.524\nsamples = 15\nvalue = [0, 2, 0, 1, 0, 0, 0, 1, 0, 0, 0, 0, 0, 0\n10, 0, 0, 0, 1, 0]"] ;
678 -> 679 ;
680 [label="X[93] <= 0.5\ngini = 0.5\nsamples = 2\nvalue = [0, 0, 0, 1, 0, 0, 0, 1, 0, 0, 0, 0, 0, 0\n0, 0, 0, 0, 0, 0]"] ;
679 -> 680 ;
681 [label="gini = 0.0\nsamples = 1\nvalue = [0, 0, 0, 1, 0, 0, 0, 0, 0, 0, 0, 0, 0, 0\n0, 0, 0, 0, 0, 0]"] ;
680 -> 681 ;
682 [label="gini = 0.0\nsamples = 1\nvalue = [0, 0, 0, 0, 0, 0, 0, 1, 0, 0, 0, 0, 0, 0\n0, 0, 0, 0, 0, 0]"] ;
680 -> 682 ;
683 [label="X[144] <= 1.108\ngini = 0.379\nsamples = 13\nvalue = [0, 2, 0, 0, 0, 0, 0, 0, 0, 0, 0, 0, 0, 0\n10, 0, 0, 0, 1, 0]"] ;
679 -> 683 ;
684 [label="X[55] <= 0.5\ngini = 0.18\nsamples = 10\nvalue = [0, 0, 0, 0, 0, 0, 0, 0, 0, 0, 0, 0, 0, 0\n9, 0, 0, 0, 1, 0]"] ;
683 -> 684 ;
685 [label="gini = 0.0\nsamples = 1\nvalue = [0, 0, 0, 0, 0, 0, 0, 0, 0, 0, 0, 0, 0, 0\n0, 0, 0, 0, 1, 0]"] ;
684 -> 685 ;
686 [label="gini = 0.0\nsamples = 9\nvalue = [0, 0, 0, 0, 0, 0, 0, 0, 0, 0, 0, 0, 0, 0\n9, 0, 0, 0, 0, 0]"] ;
684 -> 686 ;
687 [label="X[152] <= 1.82\ngini = 0.444\nsamples = 3\nvalue = [0, 2, 0, 0, 0, 0, 0, 0, 0, 0, 0, 0, 0, 0\n1, 0, 0, 0, 0, 0]"] ;
683 -> 687 ;
688 [label="gini = 0.0\nsamples = 2\nvalue = [0, 2, 0, 0, 0, 0, 0, 0, 0, 0, 0, 0, 0, 0\n0, 0, 0, 0, 0, 0]"] ;
687 -> 688 ;
689 [label="gini = 0.0\nsamples = 1\nvalue = [0, 0, 0, 0, 0, 0, 0, 0, 0, 0, 0, 0, 0, 0\n1, 0, 0, 0, 0, 0]"] ;
687 -> 689 ;
690 [label="X[125] <= 1.5\ngini = 0.667\nsamples = 3\nvalue = [0, 0, 0, 0, 0, 0, 0, 0, 1, 1, 0, 0, 0, 0\n0, 0, 1, 0, 0, 0]"] ;
678 -> 690 ;
691 [label="gini = 0.0\nsamples = 1\nvalue = [0, 0, 0, 0, 0, 0, 0, 0, 0, 1, 0, 0, 0, 0\n0, 0, 0, 0, 0, 0]"] ;
690 -> 691 ;
692 [label="X[19] <= 0.5\ngini = 0.5\nsamples = 2\nvalue = [0, 0, 0, 0, 0, 0, 0, 0, 1, 0, 0, 0, 0, 0\n0, 0, 1, 0, 0, 0]"] ;
690 -> 692 ;
693 [label="gini = 0.0\nsamples = 1\nvalue = [0, 0, 0, 0, 0, 0, 0, 0, 1, 0, 0, 0, 0, 0\n0, 0, 0, 0, 0, 0]"] ;
692 -> 693 ;
694 [label="gini = 0.0\nsamples = 1\nvalue = [0, 0, 0, 0, 0, 0, 0, 0, 0, 0, 0, 0, 0, 0\n0, 0, 1, 0, 0, 0]"] ;
692 -> 694 ;
695 [label="X[198] <= 0.5\ngini = 0.83\nsamples = 17\nvalue = [3, 0, 1, 1, 0, 2, 0, 1, 0, 0, 0, 0, 0, 0\n0, 0, 5, 2, 2, 0]"] ;
677 -> 695 ;
696 [label="X[177] <= 135.5\ngini = 0.278\nsamples = 6\nvalue = [0, 0, 0, 1, 0, 0, 0, 0, 0, 0, 0, 0, 0, 0\n0, 0, 5, 0, 0, 0]"] ;
695 -> 696 ;
697 [label="gini = 0.0\nsamples = 1\nvalue = [0, 0, 0, 1, 0, 0, 0, 0, 0, 0, 0, 0, 0, 0\n0, 0, 0, 0, 0, 0]"] ;
696 -> 697 ;
698 [label="gini = 0.0\nsamples = 5\nvalue = [0, 0, 0, 0, 0, 0, 0, 0, 0, 0, 0, 0, 0, 0\n0, 0, 5, 0, 0, 0]"] ;
696 -> 698 ;
699 [label="X[0] <= 49.5\ngini = 0.81\nsamples = 11\nvalue = [3, 0, 1, 0, 0, 2, 0, 1, 0, 0, 0, 0, 0, 0\n0, 0, 0, 2, 2, 0]"] ;
695 -> 699 ;
700 [label="X[0] <= 32.0\ngini = 0.375\nsamples = 4\nvalue = [3, 0, 1, 0, 0, 0, 0, 0, 0, 0, 0, 0, 0, 0\n0, 0, 0, 0, 0, 0]"] ;
699 -> 700 ;
701 [label="gini = 0.0\nsamples = 1\nvalue = [0, 0, 1, 0, 0, 0, 0, 0, 0, 0, 0, 0, 0, 0\n0, 0, 0, 0, 0, 0]"] ;
700 -> 701 ;
702 [label="gini = 0.0\nsamples = 3\nvalue = [3, 0, 0, 0, 0, 0, 0, 0, 0, 0, 0, 0, 0, 0\n0, 0, 0, 0, 0, 0]"] ;
700 -> 702 ;
703 [label="X[216] <= -0.031\ngini = 0.735\nsamples = 7\nvalue = [0, 0, 0, 0, 0, 2, 0, 1, 0, 0, 0, 0, 0, 0\n0, 0, 0, 2, 2, 0]"] ;
699 -> 703 ;
704 [label="gini = 0.0\nsamples = 2\nvalue = [0, 0, 0, 0, 0, 0, 0, 0, 0, 0, 0, 0, 0, 0\n0, 0, 0, 0, 2, 0]"] ;
703 -> 704 ;
705 [label="X[104] <= 2.699\ngini = 0.64\nsamples = 5\nvalue = [0, 0, 0, 0, 0, 2, 0, 1, 0, 0, 0, 0, 0, 0\n0, 0, 0, 2, 0, 0]"] ;
703 -> 705 ;
706 [label="gini = 0.0\nsamples = 2\nvalue = [0, 0, 0, 0, 0, 2, 0, 0, 0, 0, 0, 0, 0, 0\n0, 0, 0, 0, 0, 0]"] ;
705 -> 706 ;
707 [label="X[202] <= -2.476\ngini = 0.444\nsamples = 3\nvalue = [0, 0, 0, 0, 0, 0, 0, 1, 0, 0, 0, 0, 0, 0\n0, 0, 0, 2, 0, 0]"] ;
705 -> 707 ;
708 [label="gini = 0.0\nsamples = 1\nvalue = [0, 0, 0, 0, 0, 0, 0, 1, 0, 0, 0, 0, 0, 0\n0, 0, 0, 0, 0, 0]"] ;
707 -> 708 ;
709 [label="gini = 0.0\nsamples = 2\nvalue = [0, 0, 0, 0, 0, 0, 0, 0, 0, 0, 0, 0, 0, 0\n0, 0, 0, 2, 0, 0]"] ;
707 -> 709 ;
710 [label="X[197] <= 0.5\ngini = 0.9\nsamples = 297\nvalue = [10, 16, 11, 13, 15, 20, 0, 10, 11, 10, 21, 13\n12, 0, 14, 76, 15, 11, 9, 10]"] ;
2 -> 710 ;
711 [label="X[217] <= -0.909\ngini = 0.786\nsamples = 173\nvalue = [7, 5, 8, 3, 7, 10, 0, 4, 4, 5, 10, 8, 3, 0\n6, 76, 4, 4, 6, 3]"] ;
710 -> 711 ;
712 [label="X[86] <= 0.5\ngini = 0.91\nsamples = 50\nvalue = [4, 1, 3, 1, 3, 2, 0, 1, 1, 3, 7, 6, 1, 0\n4, 8, 2, 0, 1, 2]"] ;
711 -> 712 ;
713 [label="X[160] <= -1.116\ngini = 0.856\nsamples = 30\nvalue = [3, 1, 1, 1, 3, 0, 0, 0, 1, 2, 1, 6, 1, 0\n1, 8, 1, 0, 0, 0]"] ;
712 -> 713 ;
714 [label="X[85] <= 0.5\ngini = 0.617\nsamples = 9\nvalue = [0, 0, 0, 1, 2, 0, 0, 0, 0, 1, 0, 5, 0, 0\n0, 0, 0, 0, 0, 0]"] ;
713 -> 714 ;
715 [label="gini = 0.0\nsamples = 5\nvalue = [0, 0, 0, 0, 0, 0, 0, 0, 0, 0, 0, 5, 0, 0\n0, 0, 0, 0, 0, 0]"] ;
714 -> 715 ;
716 [label="X[216] <= -6.228\ngini = 0.625\nsamples = 4\nvalue = [0, 0, 0, 1, 2, 0, 0, 0, 0, 1, 0, 0, 0, 0\n0, 0, 0, 0, 0, 0]"] ;
714 -> 716 ;
717 [label="X[126] <= 1.5\ngini = 0.5\nsamples = 2\nvalue = [0, 0, 0, 1, 0, 0, 0, 0, 0, 1, 0, 0, 0, 0\n0, 0, 0, 0, 0, 0]"] ;
716 -> 717 ;
718 [label="gini = 0.0\nsamples = 1\nvalue = [0, 0, 0, 0, 0, 0, 0, 0, 0, 1, 0, 0, 0, 0\n0, 0, 0, 0, 0, 0]"] ;
717 -> 718 ;
719 [label="gini = 0.0\nsamples = 1\nvalue = [0, 0, 0, 1, 0, 0, 0, 0, 0, 0, 0, 0, 0, 0\n0, 0, 0, 0, 0, 0]"] ;
717 -> 719 ;
720 [label="gini = 0.0\nsamples = 2\nvalue = [0, 0, 0, 0, 2, 0, 0, 0, 0, 0, 0, 0, 0, 0\n0, 0, 0, 0, 0, 0]"] ;
716 -> 720 ;
721 [label="X[21] <= 0.5\ngini = 0.812\nsamples = 21\nvalue = [3, 1, 1, 0, 1, 0, 0, 0, 1, 1, 1, 1, 1, 0\n1, 8, 1, 0, 0, 0]"] ;
713 -> 721 ;
722 [label="X[81] <= 0.5\ngini = 0.888\nsamples = 14\nvalue = [3, 1, 0, 0, 1, 0, 0, 0, 1, 1, 1, 1, 1, 0\n1, 2, 1, 0, 0, 0]"] ;
721 -> 722 ;
723 [label="X[144] <= 2.196\ngini = 0.88\nsamples = 10\nvalue = [0, 0, 0, 0, 1, 0, 0, 0, 1, 1, 1, 1, 1, 0\n1, 2, 1, 0, 0, 0]"] ;
722 -> 723 ;
724 [label="X[115] <= 1.707\ngini = 0.875\nsamples = 8\nvalue = [0, 0, 0, 0, 1, 0, 0, 0, 1, 1, 1, 1, 1, 0\n1, 0, 1, 0, 0, 0]"] ;
723 -> 724 ;
725 [label="X[219] <= -1.317\ngini = 0.5\nsamples = 2\nvalue = [0, 0, 0, 0, 0, 0, 0, 0, 0, 0, 1, 0, 1, 0\n0, 0, 0, 0, 0, 0]"] ;
724 -> 725 ;
726 [label="gini = 0.0\nsamples = 1\nvalue = [0, 0, 0, 0, 0, 0, 0, 0, 0, 0, 1, 0, 0, 0\n0, 0, 0, 0, 0, 0]"] ;
725 -> 726 ;
727 [label="gini = 0.0\nsamples = 1\nvalue = [0, 0, 0, 0, 0, 0, 0, 0, 0, 0, 0, 0, 1, 0\n0, 0, 0, 0, 0, 0]"] ;
725 -> 727 ;
728 [label="X[176] <= 76.5\ngini = 0.833\nsamples = 6\nvalue = [0, 0, 0, 0, 1, 0, 0, 0, 1, 1, 0, 1, 0, 0\n1, 0, 1, 0, 0, 0]"] ;
724 -> 728 ;
729 [label="gini = 0.0\nsamples = 1\nvalue = [0, 0, 0, 0, 1, 0, 0, 0, 0, 0, 0, 0, 0, 0\n0, 0, 0, 0, 0, 0]"] ;
728 -> 729 ;
730 [label="X[42] <= 0.5\ngini = 0.8\nsamples = 5\nvalue = [0, 0, 0, 0, 0, 0, 0, 0, 1, 1, 0, 1, 0, 0\n1, 0, 1, 0, 0, 0]"] ;
728 -> 730 ;
731 [label="gini = 0.0\nsamples = 1\nvalue = [0, 0, 0, 0, 0, 0, 0, 0, 1, 0, 0, 0, 0, 0\n0, 0, 0, 0, 0, 0]"] ;
730 -> 731 ;
732 [label="X[91] <= 0.5\ngini = 0.75\nsamples = 4\nvalue = [0, 0, 0, 0, 0, 0, 0, 0, 0, 1, 0, 1, 0, 0\n1, 0, 1, 0, 0, 0]"] ;
730 -> 732 ;
733 [label="X[124] <= 2.5\ngini = 0.667\nsamples = 3\nvalue = [0, 0, 0, 0, 0, 0, 0, 0, 0, 1, 0, 1, 0, 0\n1, 0, 0, 0, 0, 0]"] ;
732 -> 733 ;
734 [label="X[150] <= 1.538\ngini = 0.5\nsamples = 2\nvalue = [0, 0, 0, 0, 0, 0, 0, 0, 0, 1, 0, 0, 0, 0\n1, 0, 0, 0, 0, 0]"] ;
733 -> 734 ;
735 [label="gini = 0.0\nsamples = 1\nvalue = [0, 0, 0, 0, 0, 0, 0, 0, 0, 0, 0, 0, 0, 0\n1, 0, 0, 0, 0, 0]"] ;
734 -> 735 ;
736 [label="gini = 0.0\nsamples = 1\nvalue = [0, 0, 0, 0, 0, 0, 0, 0, 0, 1, 0, 0, 0, 0\n0, 0, 0, 0, 0, 0]"] ;
734 -> 736 ;
737 [label="gini = 0.0\nsamples = 1\nvalue = [0, 0, 0, 0, 0, 0, 0, 0, 0, 0, 0, 1, 0, 0\n0, 0, 0, 0, 0, 0]"] ;
733 -> 737 ;
738 [label="gini = 0.0\nsamples = 1\nvalue = [0, 0, 0, 0, 0, 0, 0, 0, 0, 0, 0, 0, 0, 0\n0, 0, 1, 0, 0, 0]"] ;
732 -> 738 ;
739 [label="gini = 0.0\nsamples = 2\nvalue = [0, 0, 0, 0, 0, 0, 0, 0, 0, 0, 0, 0, 0, 0\n0, 2, 0, 0, 0, 0]"] ;
723 -> 739 ;
740 [label="X[181] <= 134.5\ngini = 0.375\nsamples = 4\nvalue = [3, 1, 0, 0, 0, 0, 0, 0, 0, 0, 0, 0, 0, 0\n0, 0, 0, 0, 0, 0]"] ;
722 -> 740 ;
741 [label="gini = 0.0\nsamples = 1\nvalue = [0, 1, 0, 0, 0, 0, 0, 0, 0, 0, 0, 0, 0, 0\n0, 0, 0, 0, 0, 0]"] ;
740 -> 741 ;
742 [label="gini = 0.0\nsamples = 3\nvalue = [3, 0, 0, 0, 0, 0, 0, 0, 0, 0, 0, 0, 0, 0\n0, 0, 0, 0, 0, 0]"] ;
740 -> 742 ;
743 [label="X[1] <= 0.5\ngini = 0.245\nsamples = 7\nvalue = [0, 0, 1, 0, 0, 0, 0, 0, 0, 0, 0, 0, 0, 0\n0, 6, 0, 0, 0, 0]"] ;
721 -> 743 ;
744 [label="gini = 0.0\nsamples = 6\nvalue = [0, 0, 0, 0, 0, 0, 0, 0, 0, 0, 0, 0, 0, 0\n0, 6, 0, 0, 0, 0]"] ;
743 -> 744 ;
745 [label="gini = 0.0\nsamples = 1\nvalue = [0, 0, 1, 0, 0, 0, 0, 0, 0, 0, 0, 0, 0, 0\n0, 0, 0, 0, 0, 0]"] ;
743 -> 745 ;
746 [label="X[203] <= -3.058\ngini = 0.845\nsamples = 20\nvalue = [1, 0, 2, 0, 0, 2, 0, 1, 0, 1, 6, 0, 0, 0\n3, 0, 1, 0, 1, 2]"] ;
712 -> 746 ;
747 [label="X[216] <= -2.374\ngini = 0.815\nsamples = 9\nvalue = [1, 0, 1, 0, 0, 1, 0, 0, 0, 1, 0, 0, 0, 0\n3, 0, 0, 0, 1, 1]"] ;
746 -> 747 ;
748 [label="X[125] <= 1.5\ngini = 0.8\nsamples = 5\nvalue = [1, 0, 1, 0, 0, 1, 0, 0, 0, 1, 0, 0, 0, 0\n0, 0, 0, 0, 1, 0]"] ;
747 -> 748 ;
749 [label="X[134] <= 1.5\ngini = 0.667\nsamples = 3\nvalue = [1, 0, 1, 0, 0, 0, 0, 0, 0, 1, 0, 0, 0, 0\n0, 0, 0, 0, 0, 0]"] ;
748 -> 749 ;
750 [label="gini = 0.0\nsamples = 1\nvalue = [0, 0, 1, 0, 0, 0, 0, 0, 0, 0, 0, 0, 0, 0\n0, 0, 0, 0, 0, 0]"] ;
749 -> 750 ;
751 [label="X[75] <= 0.5\ngini = 0.5\nsamples = 2\nvalue = [1, 0, 0, 0, 0, 0, 0, 0, 0, 1, 0, 0, 0, 0\n0, 0, 0, 0, 0, 0]"] ;
749 -> 751 ;
752 [label="gini = 0.0\nsamples = 1\nvalue = [1, 0, 0, 0, 0, 0, 0, 0, 0, 0, 0, 0, 0, 0\n0, 0, 0, 0, 0, 0]"] ;
751 -> 752 ;
753 [label="gini = 0.0\nsamples = 1\nvalue = [0, 0, 0, 0, 0, 0, 0, 0, 0, 1, 0, 0, 0, 0\n0, 0, 0, 0, 0, 0]"] ;
751 -> 753 ;
754 [label="X[124] <= 3.5\ngini = 0.5\nsamples = 2\nvalue = [0, 0, 0, 0, 0, 1, 0, 0, 0, 0, 0, 0, 0, 0\n0, 0, 0, 0, 1, 0]"] ;
748 -> 754 ;
755 [label="gini = 0.0\nsamples = 1\nvalue = [0, 0, 0, 0, 0, 0, 0, 0, 0, 0, 0, 0, 0, 0\n0, 0, 0, 0, 1, 0]"] ;
754 -> 755 ;
756 [label="gini = 0.0\nsamples = 1\nvalue = [0, 0, 0, 0, 0, 1, 0, 0, 0, 0, 0, 0, 0, 0\n0, 0, 0, 0, 0, 0]"] ;
754 -> 756 ;
