digraph Tree {
node [shape=box] ;
0 [label="X[0] <= 0.0\ngini = 0.5\nsamples = 300010\nvalue = [150005, 150005]"] ;
1 [label="gini = 0.0\nsamples = 150005\nvalue = [0, 150005]"] ;
0 -> 1 [labeldistance=2.5, labelangle=45, headlabel="True"] ;
2 [label="gini = 0.0\nsamples = 150005\nvalue = [150005, 0]"] ;
0 -> 2 [labeldistance=2.5, labelangle=-45, headlabel="False"] ;
}